{"learner":{"attributes":{"best_iteration":"452","best_score":"0.00036917940224816","scikit_learn":"{\"_estimator_type\": \"classifier\"}"},"feature_names":["Flow Duration","Tot Fwd Pkts","Tot Bwd Pkts","TotLen Fwd Pkts","Fwd Pkt Len Max","Fwd Pkt Len Min","Fwd Pkt Len Mean","Bwd Pkt Len Max","Bwd Pkt Len Min","Bwd Pkt Len Mean","Flow Byts/s","Flow Pkts/s","Flow IAT Mean","Flow IAT Min","Fwd IAT Std","Bwd IAT Mean","Bwd IAT Std","Fwd PSH Flags","Fwd URG Flags","Pkt Len Min","FIN Flag Cnt","RST Flag Cnt","PSH Flag Cnt","URG Flag Cnt","Down/Up Ratio","Init Fwd Win Byts","Init Bwd Win Byts","Fwd Act Data Pkts","Fwd Seg Size Min","Active Mean","Active Std","Idle Std"],"feature_types":["int","int","int","float","float","float","float","float","float","float","float","float","float","float","float","float","float","int","int","float","int","int","int","int","float","int","int","int","int","float","float","float"],"gradient_booster":{"model":{"cats":{"enc":[],"feature_segments":[],"sorted_idx":[]},"gbtree_model_param":{"num_parallel_tree":"1","num_trees":"503"},"iteration_indptr":[0,1,2,3,4,5,6,7,8,9,10,11,12,13,14,15,16,17,18,19,20,21,22,23,24,25,26,27,28,29,30,31,32,33,34,35,36,37,38,39,40,41,42,43,44,45,46,47,48,49,50,51,52,53,54,55,56,57,58,59,60,61,62,63,64,65,66,67,68,69,70,71,72,73,74,75,76,77,78,79,80,81,82,83,84,85,86,87,88,89,90,91,92,93,94,95,96,97,98,99,100,101,102,103,104,105,106,107,108,109,110,111,112,113,114,115,116,117,118,119,120,121,122,123,124,125,126,127,128,129,130,131,132,133,134,135,136,137,138,139,140,141,142,143,144,145,146,147,148,149,150,151,152,153,154,155,156,157,158,159,160,161,162,163,164,165,166,167,168,169,170,171,172,173,174,175,176,177,178,179,180,181,182,183,184,185,186,187,188,189,190,191,192,193,194,195,196,197,198,199,200,201,202,203,204,205,206,207,208,209,210,211,212,213,214,215,216,217,218,219,220,221,222,223,224,225,226,227,228,229,230,231,232,233,234,235,236,237,238,239,240,241,242,243,244,245,246,247,248,249,250,251,252,253,254,255,256,257,258,259,260,261,262,263,264,265,266,267,268,269,270,271,272,273,274,275,276,277,278,279,280,281,282,283,284,285,286,287,288,289,290,291,292,293,294,295,296,297,298,299,300,301,302,303,304,305,306,307,308,309,310,311,312,313,314,315,316,317,318,319,320,321,322,323,324,325,326,327,328,329,330,331,332,333,334,335,336,337,338,339,340,341,342,343,344,345,346,347,348,349,350,351,352,353,354,355,356,357,358,359,360,361,362,363,364,365,366,367,368,369,370,371,372,373,374,375,376,377,378,379,380,381,382,383,384,385,386,387,388,389,390,391,392,393,394,395,396,397,398,399,400,401,402,403,404,405,406,407,408,409,410,411,412,413,414,415,416,417,418,419,420,421,422,423,424,425,426,427,428,429,430,431,432,433,434,435,436,437,438,439,440,441,442,443,444,445,446,447,448,449,450,451,452,453,454,455,456,457,458,459,460,461,462,463,464,465,466,467,468,469,470,471,472,473,474,475,476,477,478,479,480,481,482,483,484,485,486,487,488,489,490,491,492,493,494,495,496,497,498,499,500,501,502,503],"tree_info":[0,0,0,0,0,0,0,0,0,0,0,0,0,0,0,0,0,0,0,0,0,0,0,0,0,0,0,0,0,0,0,0,0,0,0,0,0,0,0,0,0,0,0,0,0,0,0,0,0,0,0,0,0,0,0,0,0,0,0,0,0,0,0,0,0,0,0,0,0,0,0,0,0,0,0,0,0,0,0,0,0,0,0,0,0,0,0,0,0,0,0,0,0,0,0,0,0,0,0,0,0,0,0,0,0,0,0,0,0,0,0,0,0,0,0,0,0,0,0,0,0,0,0,0,0,0,0,0,0,0,0,0,0,0,0,0,0,0,0,0,0,0,0,0,0,0,0,0,0,0,0,0,0,0,0,0,0,0,0,0,0,0,0,0,0,0,0,0,0,0,0,0,0,0,0,0,0,0,0,0,0,0,0,0,0,0,0,0,0,0,0,0,0,0,0,0,0,0,0,0,0,0,0,0,0,0,0,0,0,0,0,0,0,0,0,0,0,0,0,0,0,0,0,0,0,0,0,0,0,0,0,0,0,0,0,0,0,0,0,0,0,0,0,0,0,0,0,0,0,0,0,0,0,0,0,0,0,0,0,0,0,0,0,0,0,0,0,0,0,0,0,0,0,0,0,0,0,0,0,0,0,0,0,0,0,0,0,0,0,0,0,0,0,0,0,0,0,0,0,0,0,0,0,0,0,0,0,0,0,0,0,0,0,0,0,0,0,0,0,0,0,0,0,0,0,0,0,0,0,0,0,0,0,0,0,0,0,0,0,0,0,0,0,0,0,0,0,0,0,0,0,0,0,0,0,0,0,0,0,0,0,0,0,0,0,0,0,0,0,0,0,0,0,0,0,0,0,0,0,0,0,0,0,0,0,0,0,0,0,0,0,0,0,0,0,0,0,0,0,0,0,0,0,0,0,0,0,0,0,0,0,0,0,0,0,0,0,0,0,0,0,0,0,0,0,0,0,0,0,0,0,0,0,0,0,0,0,0,0,0,0,0,0,0,0,0,0,0,0,0,0,0,0,0,0,0,0,0,0,0,0,0,0,0,0,0,0,0,0,0,0,0,0,0,0,0,0,0,0,0,0,0,0,0,0,0,0,0,0,0,0,0,0,0,0,0,0,0,0,0,0,0,0],"trees":[{"base_weights":[5.4621384E-3,6.919835E-1,-2.4263759E0,-1.9504884E-1,1.6574686E0,-2.4520946E0,-5.0622642E-2,-2.422205E0,1.0035541E0,-1.2135347E-1,1.6640824E0,-2.480347E0,-9.159134E-1,-2.3267026E0,1.5064299E0,1.488038E0,-2.4892392E0,1.6323973E0,-1.2454223E-1,1.666249E0,-1.9688542E0,-2.4867346E0,2.982674E-1,1.2179146E0,-1.22860014E-1,-3.512102E-2,-2.364404E0,8.254927E-2,-9.4375506E-2,-1.0739859E-1,8.294222E-2,-1.2451949E-1,-1.3324094E-1,1.6544718E0,-1.2295621E-1,1.666461E0,5.322079E-1,4.5893695E-2,-1.1519046E-1,-1.2455317E-1,-2.156453E0,7.967398E-2,-1.1335764E-1,-1.14253424E-1,8.263054E-2,-1.2226751E-1,-1.3762394E0,5.9236027E-2,-8.195346E-2,1.6643507E0,-1.20969E-1,8.3327286E-2,2.8078152E-2,6.559242E-2,-6.79924E-2,7.795876E-2,-1.238474E-1,4.5893695E-2,-1.0220269E-1,8.34529E-2,-1.17200255E-1],"categories":[],"categories_nodes":[],"categories_segments":[],"categories_sizes":[],"default_left":[0,0,0,0,0,0,0,0,0,0,0,0,0,0,0,0,0,0,0,0,0,0,0,0,0,0,0,0,0,0,0,0,0,0,0,0,0,0,0,0,0,0,0,0,0,0,0,0,0,0,0,0,0,0,0,0,0,0,0,0,0],"id":0,"left_children":[1,3,5,7,9,11,13,15,17,-1,19,21,23,25,27,29,31,33,-1,35,37,39,41,43,-1,-1,45,-1,-1,-1,-1,-1,47,49,-1,51,53,-1,-1,-1,55,-1,-1,-1,-1,-1,57,-1,-1,59,-1,-1,-1,-1,-1,-1,-1,-1,-1,-1,-1],"loss_changes":[1.0529668E5,4.212333E4,8.4828125E2,6.843436E4,6.4026953E2,5.9390625E2,5.3413135E2,2.3547734E3,3.6627555E4,0E0,1.8836328E2,2.40125E2,8.240736E2,2.087738E0,4.7032516E1,9.7838745E1,2.3574219E1,1.2798359E3,0E0,4.7617188E0,1.6109047E1,1.38671875E1,1.093711E2,1.6422792E2,0E0,0E0,1.3860474E0,0E0,0E0,0E0,0E0,0E0,1.2582978E1,5.694844E2,0E0,1.2617188E0,1.0429412E1,0E0,0E0,0E0,2.20034E2,0E0,0E0,0E0,0E0,0E0,1.2270789E1,0E0,0E0,2.683828E2,0E0,0E0,0E0,0E0,0E0,0E0,0E0,0E0,0E0,0E0,0E0],"parents":[2147483647,0,0,1,1,2,2,3,3,4,4,5,5,6,6,7,7,8,8,10,10,11,11,12,12,13,13,14,14,15,15,16,16,17,17,19,19,20,20,21,21,22,22,23,23,26,26,32,32,33,33,35,35,36,36,40,40,46,46,49,49],"right_children":[2,4,6,8,10,12,14,16,18,-1,20,22,24,26,28,30,32,34,-1,36,38,40,42,44,-1,-1,46,-1,-1,-1,-1,-1,48,50,-1,52,54,-1,-1,-1,56,-1,-1,-1,-1,-1,58,-1,-1,60,-1,-1,-1,-1,-1,-1,-1,-1,-1,-1,-1],"split_conditions":[2.39E2,2.6883E4,3.2E1,2.11E2,1E0,3.1111727E4,8.17E2,3.6679693E-2,4.24E2,-1.2135347E-1,4.4E1,5E0,3E0,8.13E2,6.52E2,8E0,2.3E2,9.72E2,-1.2454223E-1,7.41E2,5.3E1,5.734118E3,6.5059E4,3.799E3,-1.22860014E-1,-3.512102E-2,1.87E2,8.254927E-2,-9.4375506E-2,-1.0739859E-1,8.294222E-2,-1.2451949E-1,2.2E1,5.4E1,-1.2295621E-1,4E1,6E0,4.5893695E-2,-1.1519046E-1,-1.2455317E-1,1.48E2,7.967398E-2,-1.1335764E-1,-1.14253424E-1,8.263054E-2,-1.2226751E-1,2E0,5.9236027E-2,-8.195346E-2,5.0008637E4,-1.20969E-1,8.3327286E-2,2.8078152E-2,6.559242E-2,-6.79924E-2,7.795876E-2,-1.238474E-1,4.5893695E-2,-1.0220269E-1,8.34529E-2,-1.17200255E-1],"split_indices":[26,25,28,26,22,10,3,11,4,0,13,24,2,0,4,3,5,7,0,4,0,10,0,0,0,0,4,0,0,0,0,0,0,13,0,13,2,0,0,0,3,0,0,0,0,0,2,0,0,29,0,0,0,0,0,0,0,0,0,0,0],"split_type":[0,0,0,0,0,0,0,0,0,0,0,0,0,0,0,0,0,0,0,0,0,0,0,0,0,0,0,0,0,0,0,0,0,0,0,0,0,0,0,0,0,0,0,0,0,0,0,0,0,0,0,0,0,0,0,0,0,0,0,0,0],"sum_hessian":[6.306845E4,4.918419E4,1.3884256E4,2.5633967E4,2.3550225E4,1.3735529E4,1.4872626E2,8.968443E3,1.6665523E4,3.748068E1,2.3512744E4,1.3486873E4,2.4865663E2,6.0213142E1,8.851312E1,1.507994E2,8.817644E3,1.4124286E4,2.541238E3,2.3499271E4,1.3473151E1,1.3456045E4,3.0828457E1,1.0437077E2,1.4428586E2,1.8112304E0,5.8401913E1,8.538973E1,3.1233897E0,6.2467794E0,1.4455261E2,8.813282E3,4.3617926E0,1.4049084E4,7.5201614E1,2.349441E4,4.8608637E0,1.2198533E0,1.2253298E1,1.3275516E4,1.80529E2,2.0737505E1,1.0090952E1,1.1051994E1,9.331878E1,5.2617104E1,5.7848077E0,2.4397066E0,1.922086E0,1.4015688E4,3.3396244E1,2.34921E4,2.3103013E0,3.6595597E0,1.2013037E0,1.4028313E1,1.665007E2,1.2198533E0,4.5649543E0,1.3999831E4,1.5857209E1],"tree_param":{"num_deleted":"0","num_feature":"32","num_nodes":"61","size_leaf_vector":"1"}},{"base_weights":[6.1735576E-3,6.641004E-1,-2.257589E0,-1.8438691E-1,1.6039613E0,-2.2809699E0,-4.8767213E-2,-2.2537634E0,9.6551454E-1,-1.131101E-1,1.6104636E0,-2.3066502E0,-8.642383E-1,-2.0726006E0,1.5291958E0,1.4375436E0,-2.3147342E0,1.5793363E0,-1.15812056E-1,1.6125952E0,-1.8448541E0,-2.312455E0,2.8450915E-1,1.1735439E0,-1.1432954E-1,5.294807E-2,-2.1776865E0,7.988707E-2,-7.0017695E-2,-1.01105444E-1,8.028279E-2,-1.1578889E-1,-1.3048238E-1,1.6010243E0,-1.1447009E-1,1.612804E0,5.086717E-1,4.487331E-2,-1.0784437E-1,-1.1581931E-1,-2.0115244E0,7.716357E-2,-1.06267385E-1,-1.0703876E-1,7.998525E-2,-1.1406201E-1,-1.3080949E0,5.765737E-2,-7.848086E-2,1.6107371E0,-1.1278327E-1,8.064434E-2,2.720963E-2,6.372875E-2,-6.568157E-2,7.552706E-2,-1.15224615E-1,5.2553054E-2,-1.0153216E-1,8.076846E-2,-1.0956784E-1],"categories":[],"categories_nodes":[],"categories_segments":[],"categories_sizes":[],"default_left":[0,0,0,0,0,0,0,0,0,0,0,0,0,0,0,0,0,0,0,0,0,0,0,0,0,0,0,0,0,0,0,0,0,0,0,0,0,0,0,0,0,0,0,0,0,0,0,0,0,0,0,0,0,0,0,0,0,0,0,0,0],"id":1,"left_children":[1,3,5,7,9,11,13,15,17,-1,19,21,23,25,27,29,31,33,-1,35,37,39,41,43,-1,-1,45,-1,-1,-1,-1,-1,47,49,-1,51,53,-1,-1,-1,55,-1,-1,-1,-1,-1,57,-1,-1,59,-1,-1,-1,-1,-1,-1,-1,-1,-1,-1,-1],"loss_changes":[9.371406E4,3.8878125E4,7.316406E2,6.097268E4,5.851211E2,5.0809375E2,4.8039114E2,2.0631914E3,3.3183E4,0E0,1.7305469E2,2.0778125E2,7.3081995E2,2.399002E1,1.9214035E1,9.010132E1,2.021875E1,1.167957E3,0E0,4.4960938E0,1.4517147E1,1.159375E1,9.934968E1,1.5021594E2,0E0,0E0,2.7862854E0,0E0,0E0,0E0,0E0,0E0,1.1710855E1,5.205508E2,0E0,1.1601562E0,9.804248E0,0E0,0E0,0E0,1.9414923E2,0E0,0E0,0E0,0E0,0E0,1.7753685E1,0E0,0E0,2.4597266E2,0E0,0E0,0E0,0E0,0E0,0E0,0E0,0E0,0E0,0E0,0E0],"parents":[2147483647,0,0,1,1,2,2,3,3,4,4,5,5,6,6,7,7,8,8,10,10,11,11,12,12,13,13,14,14,15,15,16,16,17,17,19,19,20,20,21,21,22,22,23,23,26,26,32,32,33,33,35,35,36,36,40,40,46,46,49,49],"right_children":[2,4,6,8,10,12,14,16,18,-1,20,22,24,26,28,30,32,34,-1,36,38,40,42,44,-1,-1,46,-1,-1,-1,-1,-1,48,50,-1,52,54,-1,-1,-1,56,-1,-1,-1,-1,-1,58,-1,-1,60,-1,-1,-1,-1,-1,-1,-1,-1,-1,-1,-1],"split_conditions":[2.39E2,2.6883E4,3.2E1,2.11E2,1E0,3.1111727E4,1.1644444E2,3.6679693E-2,4.24E2,-1.131101E-1,4.4E1,5E0,3E0,2.41E2,3E0,8E0,2.3E2,9.72E2,-1.15812056E-1,7.41E2,5.3E1,5.734118E3,6.5059E4,3.799E3,-1.1432954E-1,5.294807E-2,1.87E2,7.988707E-2,-7.0017695E-2,-1.01105444E-1,8.028279E-2,-1.1578889E-1,2.2E1,5.4E1,-1.1447009E-1,4E1,6E0,4.487331E-2,-1.0784437E-1,-1.1581931E-1,1.48E2,7.716357E-2,-1.06267385E-1,-1.0703876E-1,7.998525E-2,-1.1406201E-1,2E0,5.765737E-2,-7.848086E-2,5.0008637E4,-1.1278327E-1,8.064434E-2,2.720963E-2,6.372875E-2,-6.568157E-2,7.552706E-2,-1.15224615E-1,5.2553054E-2,-1.0153216E-1,8.076846E-2,-1.0956784E-1],"split_indices":[26,25,28,26,22,10,6,11,4,0,13,24,2,26,2,3,5,7,0,4,0,10,0,0,0,0,4,0,0,0,0,0,0,13,0,13,2,0,0,0,3,0,0,0,0,0,2,0,0,29,0,0,0,0,0,0,0,0,0,0,0],"split_type":[0,0,0,0,0,0,0,0,0,0,0,0,0,0,0,0,0,0,0,0,0,0,0,0,0,0,0,0,0,0,0,0,0,0,0,0,0,0,0,0,0,0,0,0,0,0,0,0,0,0,0,0,0,0,0,0,0,0,0,0,0],"sum_hessian":[6.2919082E4,4.8751062E4,1.41680205E4,2.5621395E4,2.3129668E4,1.4019587E4,1.4843375E2,9.151423E3,1.646997E4,3.8252663E1,2.3091416E4,1.3769371E4,2.5021626E2,6.489215E1,8.354159E1,1.4833476E2,9.003088E3,1.3875253E4,2.594718E3,2.3077713E4,1.370314E1,1.37387E4,3.0670242E1,1.0292794E2,1.4728831E2,1.8121736E0,6.3079975E1,8.207579E1,1.4657972E0,6.3628364E0,1.4197192E2,8.998729E3,4.3595877E0,1.3798485E4,7.676752E1,2.3072889E4,4.8249483E0,1.2082436E0,1.2494897E1,1.3554918E4,1.8378256E2,2.0383003E1,1.0287239E1,1.1268411E1,9.165952E1,5.4916935E1,8.163039E0,2.4093242E0,1.9502637E0,1.3764403E4,3.4082287E1,2.3070592E4,2.2970986E0,3.6087718E0,1.2161765E0,1.3794061E1,1.6998851E2,1.807337E0,6.355702E0,1.3748229E4,1.6174448E1],"tree_param":{"num_deleted":"0","num_feature":"32","num_nodes":"61","size_leaf_vector":"1"}},{"base_weights":[6.6963313E-3,6.39652E-1,-2.1182384E0,-1.7531906E-1,1.5562412E0,-2.1397684E0,-4.6519887E-2,-2.1147046E0,9.320022E-1,-1.0625803E-1,1.5626386E0,-2.1634007E0,-8.2034683E-1,-1.9481791E0,1.4824538E0,1.392487E0,-2.1708357E0,1.5320534E0,-1.08613424E-1,1.564738E0,-1.7392983E0,-2.1687431E0,2.7236167E-1,1.1340845E0,-2.1454077E0,5.1655453E-2,-2.0464303E0,7.752691E-2,-6.754834E-2,-9.569527E-2,7.790835E-2,-1.0858983E-1,-1.2778473E-1,1.5533785E0,-1.0744458E-1,1.5649444E0,4.8692387E-1,4.389849E-2,-1.0164477E-1,-1.08618036E-1,-1.8911012E0,7.490354E-2,-1.0025715E-1,-1.0093625E-1,7.762152E-2,-1.0809916E-1,-1.0958712E0,-1.0708453E-1,-1.2396315E0,5.6177784E-2,-7.532791E-2,1.5629358E0,-1.0597259E-1,7.8251295E-2,2.6372883E-2,6.2000748E-2,-6.35286E-2,7.3328875E-2,-1.08102E-1,1.9973884E-3,-7.519757E-2,5.1281232E-2,-9.606406E-2,7.8374915E-2,-1.0315806E-1],"categories":[],"categories_nodes":[],"categories_segments":[],"categories_sizes":[],"default_left":[0,0,0,0,0,0,0,0,0,0,0,0,0,0,0,0,0,0,0,0,0,0,0,0,0,0,0,0,0,0,0,0,0,0,0,0,0,0,0,0,0,0,0,0,0,0,0,0,0,0,0,0,0,0,0,0,0,0,0,0,0,0,0,0,0],"id":2,"left_children":[1,3,5,7,9,11,13,15,17,-1,19,21,23,25,27,29,31,33,-1,35,37,39,41,43,45,-1,47,-1,-1,-1,-1,-1,49,51,-1,53,55,-1,-1,-1,57,-1,-1,-1,-1,-1,59,-1,61,-1,-1,63,-1,-1,-1,-1,-1,-1,-1,-1,-1,-1,-1,-1,-1],"loss_changes":[8.4043E4,3.5964273E4,6.395625E2,5.4733973E4,5.370117E2,4.4079297E2,4.3473596E2,1.8266055E3,3.0223957E4,0E0,1.5952344E2,1.8203125E2,6.533855E2,2.1630219E1,1.8086609E1,8.325061E1,1.7621094E1,1.0706133E3,0E0,4.265625E0,1.3193218E1,9.863281E0,9.0667984E1,1.3795079E2,2.4273682E-1,0E0,2.3281555E0,0E0,0E0,0E0,0E0,0E0,1.0919494E1,4.778496E2,0E0,1.0820312E0,9.227329E0,0E0,0E0,0E0,1.7298645E2,0E0,0E0,0E0,0E0,0E0,2.082038E0,0E0,1.6209034E1,0E0,0E0,2.263164E2,0E0,0E0,0E0,0E0,0E0,0E0,0E0,0E0,0E0,0E0,0E0,0E0,0E0],"parents":[2147483647,0,0,1,1,2,2,3,3,4,4,5,5,6,6,7,7,8,8,10,10,11,11,12,12,13,13,14,14,15,15,16,16,17,17,19,19,20,20,21,21,22,22,23,23,24,24,26,26,32,32,33,33,35,35,36,36,40,40,46,46,48,48,51,51],"right_children":[2,4,6,8,10,12,14,16,18,-1,20,22,24,26,28,30,32,34,-1,36,38,40,42,44,46,-1,48,-1,-1,-1,-1,-1,50,52,-1,54,56,-1,-1,-1,58,-1,-1,-1,-1,-1,60,-1,62,-1,-1,64,-1,-1,-1,-1,-1,-1,-1,-1,-1,-1,-1,-1,-1],"split_conditions":[2.39E2,2.6883E4,3.2E1,2.11E2,1E0,3.1111727E4,1.1644444E2,3.6679693E-2,4.24E2,-1.0625803E-1,4.4E1,5E0,3E0,2.41E2,3E0,8E0,2.3E2,9.72E2,-1.08613424E-1,7.41E2,5.3E1,5.734118E3,6.5059E4,3.799E3,7E0,5.1655453E-2,1.87E2,7.752691E-2,-6.754834E-2,-9.569527E-2,7.790835E-2,-1.0858983E-1,2.2E1,5.4E1,-1.0744458E-1,4E1,6E0,4.389849E-2,-1.0164477E-1,-1.08618036E-1,1.48E2,7.490354E-2,-1.0025715E-1,-1.0093625E-1,7.762152E-2,-1.0809916E-1,2.108521E6,-1.0708453E-1,2E0,5.6177784E-2,-7.532791E-2,5.0008637E4,-1.0597259E-1,7.8251295E-2,2.6372883E-2,6.2000748E-2,-6.35286E-2,7.3328875E-2,-1.08102E-1,1.9973884E-3,-7.519757E-2,5.1281232E-2,-9.606406E-2,7.8374915E-2,-1.0315806E-1],"split_indices":[26,25,28,26,22,10,6,11,4,0,13,24,2,26,2,3,5,7,0,4,0,10,0,0,24,0,4,0,0,0,0,0,0,13,0,13,2,0,0,0,3,0,0,0,0,0,0,0,2,0,0,29,0,0,0,0,0,0,0,0,0,0,0,0,0],"split_type":[0,0,0,0,0,0,0,0,0,0,0,0,0,0,0,0,0,0,0,0,0,0,0,0,0,0,0,0,0,0,0,0,0,0,0,0,0,0,0,0,0,0,0,0,0,0,0,0,0,0,0,0,0,0,0,0,0,0,0,0,0,0,0,0,0],"sum_hessian":[6.2483977E4,4.8143992E4,1.4339983E4,2.548511E4,2.2658885E4,1.4192459E4,1.4752449E2,9.262196E3,1.6222913E4,3.8734043E1,2.262015E4,1.3942101E4,2.5035822E2,6.5626915E1,8.189757E1,1.4552791E2,9.116669E3,1.3595439E4,2.627473E3,2.2606305E4,1.3846537E1,1.3911697E4,3.04033E1,1.01214096E2,1.4914412E2,1.7902225E0,6.383669E1,8.041798E1,1.4795973E0,6.4407725E0,1.3908713E2,9.11232E3,4.3478885E0,1.3517704E4,7.773523E1,2.2601523E4,4.781251E0,1.1958393E0,1.2650697E1,1.372603E4,1.8566685E2,1.9988243E1,1.0415056E1,1.14086685E1,8.980543E1,1.457818E2,3.36232E0,5.5615513E1,8.221177E0,2.376312E0,1.9715765E0,1.3483193E4,3.4510994E1,2.259924E4,2.283556E0,3.5531569E0,1.228094E0,1.35337305E1,1.7213313E2,1.1271647E0,2.2351553E0,1.7849188E0,6.4362583E0,1.3466816E4,1.637683E1],"tree_param":{"num_deleted":"0","num_feature":"32","num_nodes":"65","size_leaf_vector":"1"}},{"base_weights":[7.0821047E-3,6.1805946E-1,-2.001316E0,-1.6751727E-1,1.5134587E0,-2.0213401E0,-4.4610064E-2,-1.9980168E0,9.02282E-1,-1.0047499E-1,1.5197585E0,-2.0433009E0,-7.829355E-1,-1.8426794E0,1.4403669E0,1.3520608E0,-2.0502028E0,1.4896975E0,-1.0257902E-1,1.5218282E0,-1.6483238E0,-2.0482688E0,2.6155412E-1,1.0987796E0,-2.0272517E0,5.0431985E-2,-1.9354246E0,7.5406455E-2,-6.5262094E-2,-9.099553E-2,7.57774E-2,-1.0255491E-1,-1.2515552E-1,1.5106831E0,-1.015353E-1,1.522033E0,4.6675825E-1,4.2965896E-2,-9.6344344E-2,-1.02581635E-1,-1.7894924E0,7.2858535E-2,-9.5099136E-2,-9.5708705E-2,7.549841E-2,-1.02115415E-1,-1.0552547E0,-1.0120904E-1,-1.1792525E0,5.478706E-2,-7.245325E-2,1.5200955E0,-1.002198E-1,7.6105684E-2,2.5566114E-2,6.0392667E-2,-6.1518587E-2,7.133186E-2,-1.0212245E-1,1.9446368E-3,-7.235759E-2,5.007676E-2,-9.131738E-2,7.6229684E-2,-9.770084E-2],"categories":[],"categories_nodes":[],"categories_segments":[],"categories_sizes":[],"default_left":[0,0,0,0,0,0,0,0,0,0,0,0,0,0,0,0,0,0,0,0,0,0,0,0,0,0,0,0,0,0,0,0,0,0,0,0,0,0,0,0,0,0,0,0,0,0,0,0,0,0,0,0,0,0,0,0,0,0,0,0,0,0,0,0,0],"id":3,"left_children":[1,3,5,7,9,11,13,15,17,-1,19,21,23,25,27,29,31,33,-1,35,37,39,41,43,45,-1,47,-1,-1,-1,-1,-1,49,51,-1,53,55,-1,-1,-1,57,-1,-1,-1,-1,-1,59,-1,61,-1,-1,63,-1,-1,-1,-1,-1,-1,-1,-1,-1,-1,-1,-1,-1],"loss_changes":[7.584662E4,3.3336645E4,5.648008E2,4.943923E4,4.9460938E2,3.8653516E2,3.9534235E2,1.6308203E3,2.7651152E4,0E0,1.4748047E2,1.6107812E2,5.88266E2,1.9659637E1,1.7058578E1,7.714319E1,1.5546875E1,9.8502734E2,0E0,4.0625E0,1.2074261E1,8.5078125E0,8.307455E1,1.2712143E2,5.4992676E-2,0E0,1.9884644E0,0E0,0E0,0E0,0E0,0E0,1.01991825E1,4.402129E2,0E0,1.0234375E0,8.6938715E0,0E0,0E0,0E0,1.553562E2,0E0,0E0,0E0,0E0,0E0,1.9312544E0,0E0,1.4874087E1,0E0,0E0,2.0892773E2,0E0,0E0,0E0,0E0,0E0,0E0,0E0,0E0,0E0,0E0,0E0,0E0,0E0],"parents":[2147483647,0,0,1,1,2,2,3,3,4,4,5,5,6,6,7,7,8,8,10,10,11,11,12,12,13,13,14,14,15,15,16,16,17,17,19,19,20,20,21,21,22,22,23,23,24,24,26,26,32,32,33,33,35,35,36,36,40,40,46,46,48,48,51,51],"right_children":[2,4,6,8,10,12,14,16,18,-1,20,22,24,26,28,30,32,34,-1,36,38,40,42,44,46,-1,48,-1,-1,-1,-1,-1,50,52,-1,54,56,-1,-1,-1,58,-1,-1,-1,-1,-1,60,-1,62,-1,-1,64,-1,-1,-1,-1,-1,-1,-1,-1,-1,-1,-1,-1,-1],"split_conditions":[2.39E2,2.6883E4,3.2E1,2.11E2,1E0,3.1111727E4,1.1644444E2,3.6679693E-2,4.24E2,-1.0047499E-1,4.4E1,5E0,3E0,2.41E2,3E0,8E0,2.3E2,9.72E2,-1.0257902E-1,7.41E2,5.3E1,5.734118E3,6.5059E4,3.799E3,7E0,5.0431985E-2,1.87E2,7.5406455E-2,-6.5262094E-2,-9.099553E-2,7.57774E-2,-1.0255491E-1,2.2E1,5.4E1,-1.015353E-1,4E1,6E0,4.2965896E-2,-9.6344344E-2,-1.02581635E-1,1.48E2,7.2858535E-2,-9.5099136E-2,-9.5708705E-2,7.549841E-2,-1.02115415E-1,2.108521E6,-1.0120904E-1,2E0,5.478706E-2,-7.245325E-2,5.0008637E4,-1.002198E-1,7.6105684E-2,2.5566114E-2,6.0392667E-2,-6.1518587E-2,7.133186E-2,-1.0212245E-1,1.9446368E-3,-7.235759E-2,5.007676E-2,-9.131738E-2,7.6229684E-2,-9.770084E-2],"split_indices":[26,25,28,26,22,10,6,11,4,0,13,24,2,26,2,3,5,7,0,4,0,10,0,0,24,0,4,0,0,0,0,0,0,13,0,13,2,0,0,0,3,0,0,0,0,0,0,0,2,0,0,29,0,0,0,0,0,0,0,0,0,0,0,0,0],"split_type":[0,0,0,0,0,0,0,0,0,0,0,0,0,0,0,0,0,0,0,0,0,0,0,0,0,0,0,0,0,0,0,0,0,0,0,0,0,0,0,0,0,0,0,0,0,0,0,0,0,0,0,0,0,0,0,0,0,0,0,0,0,0,0,0,0],"sum_hessian":[6.180835E4,4.7391895E4,1.4416455E4,2.52445E4,2.2147396E4,1.4270386E4,1.460692E2,9.311323E3,1.5933177E4,3.896576E1,2.210843E4,1.4021097E4,2.4928885E2,6.5960594E1,8.01086E1,1.424409E2,9.168882E3,1.3290647E4,2.6425293E3,2.2094516E4,1.3914676E1,1.3991054E4,3.0043861E1,9.927594E1,1.5001291E2,1.7668209E0,6.419377E1,7.861898E1,1.4896175E0,6.485109E0,1.359558E2,9.164555E3,4.3276496E0,1.3212457E4,7.8190575E1,2.2089785E4,4.7307496E0,1.1827418E0,1.2731934E1,1.3804672E4,1.863813E2,1.9560694E1,1.0483169E1,1.1482629E1,8.779331E1,1.4664023E2,3.3726685E0,5.594976E1,8.244012E0,2.3410761E0,1.9865733E0,1.3177738E4,3.4718456E1,2.2087516E4,2.2697437E0,3.4935143E0,1.2372355E0,1.3252108E1,1.731292E2,1.1269808E0,2.2456877E0,1.7611123E0,6.4828997E0,1.3161259E4,1.6479761E1],"tree_param":{"num_deleted":"0","num_feature":"32","num_nodes":"65","size_leaf_vector":"1"}},{"base_weights":[7.36918E-3,5.988676E-1,-1.9018735E0,-1.6073915E-1,1.4749238E0,-1.9206511E0,-4.2971477E-2,-1.8987712E0,8.7577033E-1,-9.5531456E-2,1.4811324E0,-1.9412283E0,-7.5047034E-1,-1.7521034E0,1.402287E0,1.3156084E0,-1.9476848E0,1.4515766E0,-9.745108E-2,1.483175E0,-1.5690697E0,-1.9458869E0,2.5187236E-1,1.06702E0,-9.632889E-2,4.9271494E-2,-1.8403552E0,7.349248E-2,-6.313961E-2,-8.687532E-2,7.385605E-2,-1.9485276E0,-1.2259809E-1,1.4722455E0,-9.649884E-2,1.4833788E0,4.4799832E-1,4.207251E-2,-9.176196E-2,-9.745212E-2,-1.702653E0,7.099942E-2,-9.062507E-2,-9.1181666E-2,7.3582575E-2,-9.6196435E-2,-1.1255659E0,-9.7440206E-2,-1.0752331E0,5.3476315E-2,-6.98219E-2,1.4817555E0,-1.8249941E0,7.4172966E-2,2.4787752E-2,5.8890995E-2,-5.9638232E-2,6.950922E-2,-9.7034514E-2,4.8933644E-2,-8.715864E-2,-1.2276295E-2,-6.962427E-2,7.430977E-2,-9.300011E-2,-9.6339114E-2,3.926277E-2],"categories":[],"categories_nodes":[],"categories_segments":[],"categories_sizes":[],"default_left":[0,0,0,0,0,0,0,0,0,0,0,0,0,0,0,0,0,0,0,0,0,0,0,0,0,0,0,0,0,0,0,0,0,0,0,0,0,0,0,0,0,0,0,0,0,0,0,0,0,0,0,0,0,0,0,0,0,0,0,0,0,0,0,0,0,0,0],"id":4,"left_children":[1,3,5,7,9,11,13,15,17,-1,19,21,23,25,27,29,31,33,-1,35,37,39,41,43,-1,-1,45,-1,-1,-1,-1,47,49,51,-1,53,55,-1,-1,-1,57,-1,-1,-1,-1,-1,59,-1,61,-1,-1,63,65,-1,-1,-1,-1,-1,-1,-1,-1,-1,-1,-1,-1,-1,-1],"loss_changes":[6.881293E4,3.0957928E4,5.030039E2,4.4889906E4,4.569453E2,3.4210938E2,3.610073E2,1.4661758E3,2.5392092E4,0E0,1.366875E2,1.4373828E2,5.325963E2,1.7988235E1,1.6117493E1,7.166603E1,1.38671875E1,9.0913477E2,0E0,3.8828125E0,1.1115524E1,7.421875E0,7.6378685E1,1.1749E2,0E0,0E0,1.7298737E0,0E0,0E0,0E0,0E0,1.1328125E-1,9.541639E0,4.0685742E2,0E0,9.7265625E-1,8.199685E0,0E0,0E0,0E0,1.4044159E2,0E0,0E0,0E0,0E0,0E0,1.3708904E1,0E0,1.0089655E0,0E0,0E0,1.9345312E2,1.1480629E1,0E0,0E0,0E0,0E0,0E0,0E0,0E0,0E0,0E0,0E0,0E0,0E0,0E0,0E0],"parents":[2147483647,0,0,1,1,2,2,3,3,4,4,5,5,6,6,7,7,8,8,10,10,11,11,12,12,13,13,14,14,15,15,16,16,17,17,19,19,20,20,21,21,22,22,23,23,26,26,31,31,32,32,33,33,35,35,36,36,40,40,46,46,48,48,51,51,52,52],"right_children":[2,4,6,8,10,12,14,16,18,-1,20,22,24,26,28,30,32,34,-1,36,38,40,42,44,-1,-1,46,-1,-1,-1,-1,48,50,52,-1,54,56,-1,-1,-1,58,-1,-1,-1,-1,-1,60,-1,62,-1,-1,64,66,-1,-1,-1,-1,-1,-1,-1,-1,-1,-1,-1,-1,-1,-1],"split_conditions":[2.39E2,2.6883E4,3.2E1,2.11E2,1E0,3.1111727E4,1.1644444E2,3.6679693E-2,4.24E2,-9.5531456E-2,4.4E1,5E0,3E0,2.41E2,3E0,8E0,2.3E2,9.72E2,-9.745108E-2,7.41E2,5.3E1,5.734118E3,6.5059E4,3.799E3,-9.632889E-2,4.9271494E-2,1.87E2,7.349248E-2,-6.313961E-2,-8.687532E-2,7.385605E-2,3.3333136E7,2.2E1,4.3E1,-9.649884E-2,4E1,6E0,4.207251E-2,-9.176196E-2,-9.745212E-2,1.48E2,7.099942E-2,-9.062507E-2,-9.1181666E-2,7.3582575E-2,-9.6196435E-2,2E0,-9.7440206E-2,1.5604E5,5.3476315E-2,-6.98219E-2,5.0008637E4,1.08666664E2,7.4172966E-2,2.4787752E-2,5.8890995E-2,-5.9638232E-2,6.950922E-2,-9.7034514E-2,4.8933644E-2,-8.715864E-2,-1.2276295E-2,-6.962427E-2,7.430977E-2,-9.300011E-2,-9.6339114E-2,3.926277E-2],"split_indices":[26,25,28,26,22,10,6,11,4,0,13,24,2,26,2,3,5,7,0,4,0,10,0,0,0,0,4,0,0,0,0,12,0,13,0,13,2,0,0,0,3,0,0,0,0,0,2,0,29,0,0,29,6,0,0,0,0,0,0,0,0,0,0,0,0,0,0],"split_type":[0,0,0,0,0,0,0,0,0,0,0,0,0,0,0,0,0,0,0,0,0,0,0,0,0,0,0,0,0,0,0,0,0,0,0,0,0,0,0,0,0,0,0,0,0,0,0,0,0,0,0,0,0,0,0,0,0,0,0,0,0,0,0,0,0,0,0],"sum_hessian":[6.0931383E4,4.6519855E4,1.441153E4,2.4916334E4,2.160352E4,1.4267376E4,1.4415399E2,9.307899E3,1.5608435E4,3.898346E1,2.1564537E4,1.4020177E4,2.4719868E2,6.595028E1,7.820371E1,1.3912823E2,9.168771E3,1.2965939E4,2.6424941E3,2.155062E4,1.3917636E1,1.3990571E4,2.9606325E1,9.7154434E1,1.5004425E2,1.7421892E0,6.420809E1,7.670757E1,1.4961407E0,6.4999623E0,1.3262828E2,9.164472E3,4.2997775E0,1.2887732E4,7.8207886E1,2.1545945E4,4.6743436E0,1.1690445E0,1.2748591E1,1.3804473E4,1.8609819E2,1.9106915E1,1.0499411E1,1.1499075E1,8.565536E1,5.597219E1,8.235905E0,9.16034E3,4.1319156E0,2.303984E0,1.9957937E0,1.2851217E4,3.651552E1,2.154369E4,2.2557268E0,3.4305604E0,1.2437834E0,1.2953403E1,1.7314479E2,1.7361326E0,6.4997716E0,1.6335692E0,2.498346E0,1.283472E4,1.6496851E1,3.539703E1,1.1184882E0],"tree_param":{"num_deleted":"0","num_feature":"32","num_nodes":"67","size_leaf_vector":"1"}},{"base_weights":[7.5841164E-3,5.8171314E-1,-1.8163245E0,-1.548023E-1,1.440069E0,-1.8340553E0,-4.1554492E-2,-1.8134042E0,8.5200137E-1,-9.125942E-2,1.4461927E0,-1.8534766E0,-7.2173655E-1,-1.6735071E0,1.3676789E0,1.2825909E0,-1.8595638E0,1.4171269E0,-9.304317E-2,1.4482105E0,-1.4993737E0,-1.8578767E0,2.4314518E-1,1.0383081E0,-1.8392227E0,4.8168488E-2,-1.758055E0,7.175758E-2,-6.1164E-2,-8.323362E-2,7.211645E-2,-9.3018204E-2,-1.2011328E-1,1.4375002E0,-9.2158064E-2,1.4484137E0,4.3049228E-1,4.1215573E-2,-8.77619E-2,-9.304291E-2,-1.6276265E0,6.9302015E-2,-8.670799E-2,-8.722391E-2,7.184645E-2,-9.274726E-2,-9.8806447E-1,-9.187238E-2,-1.0774759E0,5.2237786E-2,-6.740415E-2,1.4468821E0,-1.7419554E0,7.242471E-2,2.4036286E-2,5.7484068E-2,-5.7875615E-2,6.783858E-2,-9.2655905E-2,-3.5243619E-3,-6.6548735E-2,4.7846574E-2,-8.348495E-2,7.256337E-2,-8.89101E-2,-9.197972E-2,3.8513523E-2],"categories":[],"categories_nodes":[],"categories_segments":[],"categories_sizes":[],"default_left":[0,0,0,0,0,0,0,0,0,0,0,0,0,0,0,0,0,0,0,0,0,0,0,0,0,0,0,0,0,0,0,0,0,0,0,0,0,0,0,0,0,0,0,0,0,0,0,0,0,0,0,0,0,0,0,0,0,0,0,0,0,0,0,0,0,0,0],"id":5,"left_children":[1,3,5,7,9,11,13,15,17,-1,19,21,23,25,27,29,31,33,-1,35,37,39,41,43,45,-1,47,-1,-1,-1,-1,-1,49,51,-1,53,55,-1,-1,-1,57,-1,-1,-1,-1,-1,59,-1,61,-1,-1,63,65,-1,-1,-1,-1,-1,-1,-1,-1,-1,-1,-1,-1,-1,-1],"loss_changes":[6.2713426E4,2.879702E4,4.511289E2,4.0940766E4,4.232539E2,3.0534766E2,3.3082526E2,1.3258477E3,2.3392297E4,0E0,1.2696094E2,1.2916797E2,4.842928E2,1.655185E1,1.5253067E1,6.672858E1,1.2478516E1,8.4135547E2,0E0,3.7148438E0,1.0284447E1,6.5351562E0,7.043296E1,1.08870255E2,1.7956543E-1,0E0,1.5285034E0,0E0,0E0,0E0,0E0,0E0,8.939781E0,3.768457E2,0E0,9.375E-1,7.7410746E0,0E0,0E0,0E0,1.2766205E2,0E0,0E0,0E0,0E0,0E0,1.4376111E0,0E0,1.2683134E1,0E0,0E0,1.7954492E2,1.0584496E1,0E0,0E0,0E0,0E0,0E0,0E0,0E0,0E0,0E0,0E0,0E0,0E0,0E0,0E0],"parents":[2147483647,0,0,1,1,2,2,3,3,4,4,5,5,6,6,7,7,8,8,10,10,11,11,12,12,13,13,14,14,15,15,16,16,17,17,19,19,20,20,21,21,22,22,23,23,24,24,26,26,32,32,33,33,35,35,36,36,40,40,46,46,48,48,51,51,52,52],"right_children":[2,4,6,8,10,12,14,16,18,-1,20,22,24,26,28,30,32,34,-1,36,38,40,42,44,46,-1,48,-1,-1,-1,-1,-1,50,52,-1,54,56,-1,-1,-1,58,-1,-1,-1,-1,-1,60,-1,62,-1,-1,64,66,-1,-1,-1,-1,-1,-1,-1,-1,-1,-1,-1,-1,-1,-1],"split_conditions":[2.39E2,2.6883E4,3.2E1,2.11E2,1E0,3.1111727E4,1.1644444E2,3.6679693E-2,4.24E2,-9.125942E-2,4.4E1,5E0,3E0,2.41E2,3E0,8E0,2.3E2,9.72E2,-9.304317E-2,7.41E2,5.3E1,5.734118E3,6.5059E4,3.799E3,1.349E3,4.8168488E-2,1.87E2,7.175758E-2,-6.1164E-2,-8.323362E-2,7.211645E-2,-9.3018204E-2,2.2E1,4.3E1,-9.2158064E-2,4E1,6E0,4.1215573E-2,-8.77619E-2,-9.304291E-2,1.48E2,6.9302015E-2,-8.670799E-2,-8.722391E-2,7.184645E-2,-9.274726E-2,3.53E2,-9.187238E-2,2E0,5.2237786E-2,-6.740415E-2,5.0008637E4,1.08666664E2,7.242471E-2,2.4036286E-2,5.7484068E-2,-5.7875615E-2,6.783858E-2,-9.2655905E-2,-3.5243619E-3,-6.6548735E-2,4.7846574E-2,-8.348495E-2,7.256337E-2,-8.89101E-2,-9.197972E-2,3.8513523E-2],"split_indices":[26,25,28,26,22,10,6,11,4,0,13,24,2,26,2,3,5,7,0,4,0,10,0,0,4,0,4,0,0,0,0,0,0,13,0,13,2,0,0,0,3,0,0,0,0,0,7,0,2,0,0,29,6,0,0,0,0,0,0,0,0,0,0,0,0,0,0],"split_type":[0,0,0,0,0,0,0,0,0,0,0,0,0,0,0,0,0,0,0,0,0,0,0,0,0,0,0,0,0,0,0,0,0,0,0,0,0,0,0,0,0,0,0,0,0,0,0,0,0,0,0,0,0,0,0,0,0,0,0,0,0,0,0,0,0,0,0],"sum_hessian":[5.9887117E4,4.5549688E4,1.4337428E4,2.4515172E4,2.1034516E4,1.4195573E4,1.4185422E2,9.259814E3,1.5255358E4,3.88183E1,2.0995697E4,1.3951313E4,2.4425975E2,6.5645905E1,7.6208305E1,1.3563751E2,9.124177E3,1.262573E4,2.6296284E3,2.0981834E4,1.3864373E1,1.392221E4,2.9103445E1,9.488554E1,1.4937422E2,1.7165279E0,6.392938E1,7.470886E1,1.4994453E0,6.489067E0,1.2914845E2,9.119911E3,4.265127E0,1.2547879E4,7.785185E1,2.097722E4,4.612855E0,1.1548339E0,1.2709539E1,1.3737243E4,1.849672E2,1.8632668E1,1.04707775E1,1.1465836E1,8.34197E1,1.4550708E2,3.8671365E0,5.572857E1,8.200811E0,2.2653685E0,1.9997588E0,1.2511505E4,3.6374016E1,2.0974979E4,2.2415628E0,3.3649356E0,1.2479194E0,1.2641325E1,1.7232587E2,1.3800042E0,2.4871323E0,1.710176E0,6.490635E0,1.2495064E4,1.6440123E1,3.5270935E1,1.1030799E0],"tree_param":{"num_deleted":"0","num_feature":"32","num_nodes":"67","size_leaf_vector":"1"}},{"base_weights":[7.7442504E-3,5.6630546E-1,-1.7420224E0,-1.4955994E-1,1.408422E0,-1.7588636E0,-4.0320843E-2,-1.7392443E0,8.3059055E-1,-8.753299E-2,1.4144666E0,-1.7772974E0,-6.966743E-1,-1.6046731E0,1.3360974E0,1.2525609E0,-1.7830578E0,1.3858737E0,-8.921697E-2,1.4164617E0,-1.437568E0,-1.7814784E0,2.3523296E-1,1.0122344E0,-1.7636758E0,4.711808E-2,-1.6861452E0,7.017895E-2,-5.9320386E-2,-7.9991214E-2,7.05354E-2,-1.7838231E0,-1.17700785E-1,1.4059718E0,-8.8380896E-2,1.416665E0,4.141095E-1,4.03926E-2,-8.424037E-2,-8.921566E-2,-1.562199E0,6.774598E-2,-8.325025E-2,-8.373485E-2,7.026716E-2,-8.889276E-2,-8.86625E-1,-8.810663E-2,-1.0341089E0,-8.9204244E-2,-9.6969724E-1,5.1064588E-2,-6.517464E-2,1.4152347E0,-1.6693437E0,7.08373E-2,2.331039E-2,5.616181E-2,-5.6220073E-2,6.630104E-2,-8.885106E-2,5.577189E-3,-6.35597E-2,4.681082E-2,-8.021573E-2,-9.048714E-3,-6.433397E-2,7.09785E-2,-8.532011E-2,-8.817972E-2,3.779122E-2],"categories":[],"categories_nodes":[],"categories_segments":[],"categories_sizes":[],"default_left":[0,0,0,0,0,0,0,0,0,0,0,0,0,0,0,0,0,0,0,0,0,0,0,0,0,0,0,0,0,0,0,0,0,0,0,0,0,0,0,0,0,0,0,0,0,0,0,0,0,0,0,0,0,0,0,0,0,0,0,0,0,0,0,0,0,0,0,0,0,0,0],"id":6,"left_children":[1,3,5,7,9,11,13,15,17,-1,19,21,23,25,27,29,31,33,-1,35,37,39,41,43,45,-1,47,-1,-1,-1,-1,49,51,53,-1,55,57,-1,-1,-1,59,-1,-1,-1,-1,-1,61,-1,63,-1,65,-1,-1,67,69,-1,-1,-1,-1,-1,-1,-1,-1,-1,-1,-1,-1,-1,-1,-1,-1],"loss_changes":[5.7377543E4,2.682752E4,4.0704688E2,3.748177E4,3.929414E2,2.741914E2,3.0410013E2,1.2048965E3,2.1609727E4,0E0,1.1816797E2,1.1675391E2,4.4231802E2,1.5303696E1,1.4456512E1,6.2257416E1,1.1316406E1,7.80459E2,0E0,3.5703125E0,9.556757E0,5.7890625E0,6.512118E1,1.0111431E2,2.7786255E-1,0E0,1.3686371E0,0E0,0E0,0E0,0E0,1.9726562E-1,8.387494E0,3.4983008E2,0E0,9.1015625E-1,7.3147807E0,0E0,0E0,0E0,1.16593414E2,0E0,0E0,0E0,0E0,0E0,1.8181195E0,0E0,1.1773285E1,0E0,1.041255E0,0E0,0E0,1.6700586E2,9.810379E0,0E0,0E0,0E0,0E0,0E0,0E0,0E0,0E0,0E0,0E0,0E0,0E0,0E0,0E0,0E0,0E0],"parents":[2147483647,0,0,1,1,2,2,3,3,4,4,5,5,6,6,7,7,8,8,10,10,11,11,12,12,13,13,14,14,15,15,16,16,17,17,19,19,20,20,21,21,22,22,23,23,24,24,26,26,31,31,32,32,33,33,35,35,36,36,40,40,46,46,48,48,50,50,53,53,54,54],"right_children":[2,4,6,8,10,12,14,16,18,-1,20,22,24,26,28,30,32,34,-1,36,38,40,42,44,46,-1,48,-1,-1,-1,-1,50,52,54,-1,56,58,-1,-1,-1,60,-1,-1,-1,-1,-1,62,-1,64,-1,66,-1,-1,68,70,-1,-1,-1,-1,-1,-1,-1,-1,-1,-1,-1,-1,-1,-1,-1,-1],"split_conditions":[2.39E2,2.6883E4,3.2E1,2.11E2,1E0,3.1111727E4,1.1644444E2,3.6679693E-2,4.24E2,-8.753299E-2,4.4E1,5E0,3E0,2.41E2,3E0,8E0,2.3E2,9.72E2,-8.921697E-2,7.41E2,5.3E1,5.734118E3,6.5059E4,3.799E3,7E0,4.711808E-2,1.87E2,7.017895E-2,-5.9320386E-2,-7.9991214E-2,7.05354E-2,3.3333136E7,2.2E1,4.3E1,-8.8380896E-2,4E1,6E0,4.03926E-2,-8.424037E-2,-8.921566E-2,1.48E2,6.774598E-2,-8.325025E-2,-8.373485E-2,7.026716E-2,-8.889276E-2,2.108521E6,-8.810663E-2,2E0,-8.9204244E-2,1.5604E5,5.1064588E-2,-6.517464E-2,5.0008637E4,1.08666664E2,7.08373E-2,2.331039E-2,5.616181E-2,-5.6220073E-2,6.630104E-2,-8.885106E-2,5.577189E-3,-6.35597E-2,4.681082E-2,-8.021573E-2,-9.048714E-3,-6.433397E-2,7.09785E-2,-8.532011E-2,-8.817972E-2,3.779122E-2],"split_indices":[26,25,28,26,22,10,6,11,4,0,13,24,2,26,2,3,5,7,0,4,0,10,0,0,24,0,4,0,0,0,0,12,0,13,0,13,2,0,0,0,3,0,0,0,0,0,0,0,2,0,29,0,0,29,6,0,0,0,0,0,0,0,0,0,0,0,0,0,0,0,0],"split_type":[0,0,0,0,0,0,0,0,0,0,0,0,0,0,0,0,0,0,0,0,0,0,0,0,0,0,0,0,0,0,0,0,0,0,0,0,0,0,0,0,0,0,0,0,0,0,0,0,0,0,0,0,0,0,0,0,0,0,0,0,0,0,0,0,0,0,0,0,0,0,0],"sum_hessian":[5.870515E4,4.450039E4,1.4204757E4,2.4053686E4,2.0446705E4,1.40655205E4,1.3923581E2,9.173926E3,1.4879761E4,3.8497566E1,2.0408209E4,1.3824922E4,2.4059854E2,6.5091255E1,7.4144554E1,1.3201045E2,9.041915E3,1.2273863E4,2.6058977E3,2.0394445E4,1.3762845E1,1.3796376E4,2.85465E1,9.250075E1,1.480978E2,1.6900198E0,6.3401234E1,7.264475E1,1.4998016E0,6.455798E0,1.2555466E2,9.03769E3,4.224496E0,1.2196685E4,7.717896E1,2.0389898E4,4.5470366E0,1.1401896E0,1.2622655E1,1.3613257E4,1.8311871E2,1.8142988E1,1.0403511E1,1.1389875E1,8.111087E1,1.4473083E2,3.3669689E0,5.5258923E1,8.142309E0,9.033594E3,4.09622E0,2.2255282E0,1.9989678E0,1.2160596E4,3.608832E1,2.0387672E4,2.2273035E0,3.297213E0,1.2498235E0,1.23191185E1,1.7079959E2,1.1338788E0,2.2330902E0,1.6834197E0,6.4588895E0,1.6246507E0,2.4715695E0,1.2144275E4,1.6320206E1,3.500086E1,1.0874639E0],"tree_param":{"num_deleted":"0","num_feature":"32","num_nodes":"71","size_leaf_vector":"1"}},{"base_weights":[7.86193E-3,-7.0595455E-1,1.2956454E0,3.7492895E-1,-1.479057E0,1.3795925E0,-1.3586498E0,-6.645473E-1,1.2965986E0,-1.6774832E0,1.2274964E0,-8.425584E-2,1.3855636E0,-1.66162E0,1.3369884E0,-1.6619256E0,1.3740401E0,-1.6445434E0,1.3698151E0,-1.704667E0,6.92035E-2,-8.4804736E-2,6.9546476E-2,1.3875378E0,-1.382348E0,-8.5745886E-2,-5.4935914E-1,6.855407E-2,6.335795E-1,-1.7078665E0,9.481073E-1,1.3890882E0,-7.96877E-2,-8.4241316E-2,5.0578244E-2,-8.383022E-2,1.3855466E0,-1.7108891E0,-6.130432E-1,1.3877413E0,3.9873597E-1,3.960132E-2,-8.111671E-2,1.0888776E0,-8.287106E-2,5.020797E-2,-1.1938731E-2,-1.7176896E0,6.57065E-2,6.873868E-2,-1.4691801E0,6.959828E-2,-5.900342E-2,6.958788E-2,-8.09012E-2,-4.4237342E-1,-1.7122836E0,6.790122E-2,-8.475105E-2,6.9391154E-2,2.2608824E-2,5.4915417E-2,-5.4662097E-2,-9.699217E-3,6.335701E-2,-8.591544E-2,-3.9279487E-2,-7.897577E-2,-3.1091666E-3,6.2229943E-2,-7.3278494E-2,-7.79188E-2,-8.582919E-2],"categories":[],"categories_nodes":[],"categories_segments":[],"categories_sizes":[],"default_left":[0,0,0,0,0,0,0,0,0,0,0,0,0,0,0,0,0,0,0,0,0,0,0,0,0,0,0,0,0,0,0,0,0,0,0,0,0,0,0,0,0,0,0,0,0,0,0,0,0,0,0,0,0,0,0,0,0,0,0,0,0,0,0,0,0,0,0,0,0,0,0,0,0],"id":7,"left_children":[1,3,5,7,9,11,13,15,17,19,21,-1,23,25,27,29,31,33,35,37,-1,-1,-1,39,41,-1,43,-1,45,47,49,51,-1,-1,-1,-1,53,55,57,59,61,-1,-1,63,-1,-1,-1,65,-1,-1,67,-1,-1,-1,-1,69,71,-1,-1,-1,-1,-1,-1,-1,-1,-1,-1,-1,-1,-1,-1,-1,-1],"loss_changes":[5.277664E4,3.0867516E4,4.5641055E3,1.4758636E4,1.1567715E4,3.6553906E2,5.152792E2,1.4722876E4,1.7604971E3,1.67225E3,7.0549194E2,0E0,1.1016406E2,3.25625E1,6.667404E-1,5.8460254E2,1.0846045E2,2.2972412E1,3.8414746E2,1.3404297E2,0E0,0E0,0E0,3.4335938E0,8.914001E0,0E0,5.138974E1,0E0,1.7976019E0,1.4409863E2,8.941956E1,1.9144043E1,0E0,0E0,0E0,0E0,1.5012793E2,3.4222656E1,2.4602286E2,8.8671875E-1,6.9179144E0,0E0,0E0,2.9041986E0,0E0,0E0,0E0,1.3984375E0,0E0,0E0,1.9504604E0,0E0,0E0,0E0,0E0,4.163552E1,1.03984375E1,0E0,0E0,0E0,0E0,0E0,0E0,0E0,0E0,0E0,0E0,0E0,0E0,0E0,0E0,0E0,0E0],"parents":[2147483647,0,0,1,1,2,2,3,3,4,4,5,5,6,6,7,7,8,8,9,9,10,10,12,12,13,13,14,14,15,15,16,16,17,17,18,18,19,19,23,23,24,24,26,26,28,28,29,29,30,30,31,31,36,36,37,37,38,38,39,39,40,40,43,43,47,47,50,50,55,55,56,56],"right_children":[2,4,6,8,10,12,14,16,18,20,22,-1,24,26,28,30,32,34,36,38,-1,-1,-1,40,42,-1,44,-1,46,48,50,52,-1,-1,-1,-1,54,56,58,60,62,-1,-1,64,-1,-1,-1,66,-1,-1,68,-1,-1,-1,-1,70,72,-1,-1,-1,-1,-1,-1,-1,-1,-1,-1,-1,-1,-1,-1,-1,-1],"split_conditions":[2.6883E4,5.6476616E3,2.41E2,2.1244167E3,1E0,1E0,3.7655055E6,2.8E1,1.6E1,1E0,4.2E2,-8.425584E-2,4.4E1,2.4E1,3.1E1,1.2690476E2,3.2E1,2.5464272E3,1.76E2,3.4559456E7,6.92035E-2,-8.4804736E-2,6.9546476E-2,7.41E2,5.3E1,-8.5745886E-2,2E0,6.855407E-2,4.1048917E-1,6E0,3.68E2,1E0,-7.96877E-2,-8.4241316E-2,5.0578244E-2,-8.383022E-2,2.2E2,2.6005E3,2.26E2,4E1,6E0,3.960132E-2,-8.111671E-2,5.0153847E1,-8.287106E-2,5.020797E-2,-1.1938731E-2,1.2E1,6.57065E-2,6.873868E-2,1E0,6.959828E-2,-5.900342E-2,6.958788E-2,-8.09012E-2,1.48E2,7.5982E4,6.790122E-2,-8.475105E-2,6.9391154E-2,2.2608824E-2,5.4915417E-2,-5.4662097E-2,-9.699217E-3,6.335701E-2,-8.591544E-2,-3.9279487E-2,-7.897577E-2,-3.1091666E-3,6.2229943E-2,-7.3278494E-2,-7.79188E-2,-8.582919E-2],"split_indices":[25,14,26,15,23,22,29,28,3,20,7,0,13,28,13,9,13,10,26,14,0,0,0,4,0,0,2,0,11,2,7,22,0,0,0,0,26,12,25,13,2,0,0,6,0,0,0,1,0,0,24,0,0,0,0,3,0,0,0,0,0,0,0,0,0,0,0,0,0,0,0,0,0],"split_type":[0,0,0,0,0,0,0,0,0,0,0,0,0,0,0,0,0,0,0,0,0,0,0,0,0,0,0,0,0,0,0,0,0,0,0,0,0,0,0,0,0,0,0,0,0,0,0,0,0,0,0,0,0,0,0,0,0,0,0,0,0,0,0,0,0,0,0,0,0,0,0,0,0],"sum_hessian":[5.7411277E4,3.6937387E4,2.0473889E4,1.5402912E4,2.1534477E4,1.984668E4,6.2720984E2,7.238958E3,8.1639546E3,2.0063906E4,1.4705703E3,3.8045235E1,1.9808633E4,5.6418335E2,6.302651E1,4.860933E3,2.3780251E3,1.9777519E2,7.966179E3,1.9887764E4,1.7614143E2,7.7358345E1,1.3932119E3,1.9795014E4,1.362012E1,5.378678E2,2.6315535E1,5.9207623E1,3.818886E0,4.777192E3,8.3741035E1,2.3665574E3,1.1467554E1,1.9518074E2,2.5944521E0,4.0382977E1,7.9257964E3,1.9774484E4,1.13280754E2,1.9790535E4,4.4775724E0,1.1251847E0,1.2494936E1,1.0624638E1,1.5690897E1,2.5742445E0,1.2446417E0,4.762144E3,1.5047823E1,7.1544304E1,1.2196737E1,2.3643677E3,2.1898444E0,7.909976E3,1.5820315E1,2.2064354E1,1.975242E4,4.0055485E1,7.322527E1,1.9788322E4,2.2129962E0,3.2279015E0,1.2496709E0,1.2854844E0,9.339153E0,4.7581406E3,4.003589E0,1.1196133E1,1.000604E0,8.248478E0,1.3815876E1,5.4675854E2,1.920566E4],"tree_param":{"num_deleted":"0","num_feature":"32","num_nodes":"73","size_leaf_vector":"1"}},{"base_weights":[7.955025E-3,-6.8483734E-1,1.2703687E0,3.661543E-1,-1.4295559E0,1.3532389E0,-1.3136903E0,-6.44837E-1,1.2714151E0,-1.6197729E0,1.2032305E0,-8.135307E-2,1.3591417E0,-1.6046685E0,1.3105979E0,-1.6050935E0,1.347803E0,-1.5874617E0,1.3437117E0,-1.6458085E0,6.788848E-2,-8.190643E-2,6.822931E-2,1.361097E0,-1.3326762E0,-8.279849E-2,-5.318404E-1,6.723487E-2,6.172625E-1,-1.6491199E0,9.2684513E-1,1.3627102E0,-7.702139E-2,-8.132321E-2,4.9555305E-2,-8.098221E-2,1.3592609E0,-1.6517675E0,-5.947828E-1,1.3613013E0,3.842733E-1,3.883965E-2,-7.83272E-2,1.0630982E0,-7.996206E-2,4.9202036E-2,-1.16013205E-2,-1.6585524E0,6.439172E-2,6.741899E-2,-1.4194988E0,6.827922E-2,-5.739968E-2,6.8270445E-2,-7.8199685E-2,-9.678364E-1,-1.6542637E0,6.659572E-2,-8.185508E-2,6.806921E-2,2.1930417E-2,5.3737253E-2,-5.319317E-2,-9.42323E-3,6.2072277E-2,-8.29583E-2,-3.7673965E-2,-7.637385E-2,-3.0307088E-3,-7.896692E-2,6.356284E-2,-7.629993E-2,-8.287331E-2],"categories":[],"categories_nodes":[],"categories_segments":[],"categories_sizes":[],"default_left":[0,0,0,0,0,0,0,0,0,0,0,0,0,0,0,0,0,0,0,0,0,0,0,0,0,0,0,0,0,0,0,0,0,0,0,0,0,0,0,0,0,0,0,0,0,0,0,0,0,0,0,0,0,0,0,0,0,0,0,0,0,0,0,0,0,0,0,0,0,0,0,0,0],"id":8,"left_children":[1,3,5,7,9,11,13,15,17,19,21,-1,23,25,27,29,31,33,35,37,-1,-1,-1,39,41,-1,43,-1,45,47,49,51,-1,-1,-1,-1,53,55,57,59,61,-1,-1,63,-1,-1,-1,65,-1,-1,67,-1,-1,-1,-1,69,71,-1,-1,-1,-1,-1,-1,-1,-1,-1,-1,-1,-1,-1,-1,-1,-1],"loss_changes":[4.9006273E4,2.8317549E4,4.2534316E3,1.3733528E4,1.0606402E4,3.4064453E2,4.7359375E2,1.3566947E4,1.6384287E3,1.5331797E3,6.566399E2,0E0,1.02875E2,2.9735107E1,6.400223E-1,5.348457E2,1.0138086E2,2.1296082E1,3.5801855E2,1.2163281E2,0E0,0E0,0E0,3.3046875E0,8.341885E0,0E0,4.742643E1,0E0,1.7120857E0,1.3241992E2,8.3422874E1,1.8125488E1,0E0,0E0,0E0,0E0,1.4020117E2,3.1632812E1,2.2697757E2,8.7109375E-1,6.547912E0,0E0,0E0,2.7717352E0,0E0,0E0,0E0,1.3535156E0,0E0,0E0,1.8204498E0,0E0,0E0,0E0,0E0,1.0224022E2,5.4375E0,0E0,0E0,0E0,0E0,0E0,0E0,0E0,0E0,0E0,0E0,0E0,0E0,0E0,0E0,0E0,0E0],"parents":[2147483647,0,0,1,1,2,2,3,3,4,4,5,5,6,6,7,7,8,8,9,9,10,10,12,12,13,13,14,14,15,15,16,16,17,17,18,18,19,19,23,23,24,24,26,26,28,28,29,29,30,30,31,31,36,36,37,37,38,38,39,39,40,40,43,43,47,47,50,50,55,55,56,56],"right_children":[2,4,6,8,10,12,14,16,18,20,22,-1,24,26,28,30,32,34,36,38,-1,-1,-1,40,42,-1,44,-1,46,48,50,52,-1,-1,-1,-1,54,56,58,60,62,-1,-1,64,-1,-1,-1,66,-1,-1,68,-1,-1,-1,-1,70,72,-1,-1,-1,-1,-1,-1,-1,-1,-1,-1,-1,-1,-1,-1,-1,-1],"split_conditions":[2.6883E4,5.6476616E3,2.41E2,2.1244167E3,1E0,1E0,3.7655055E6,2.8E1,1.6E1,1E0,4.2E2,-8.135307E-2,4.4E1,2.4E1,3.1E1,1.2690476E2,3.2E1,2.5464272E3,1.76E2,3.4559456E7,6.788848E-2,-8.190643E-2,6.822931E-2,7.41E2,5.3E1,-8.279849E-2,2E0,6.723487E-2,4.1048917E-1,6E0,3.68E2,1E0,-7.702139E-2,-8.132321E-2,4.9555305E-2,-8.098221E-2,2.2E2,2.2075E4,2.26E2,4E1,6E0,3.883965E-2,-7.83272E-2,5.0153847E1,-7.996206E-2,4.9202036E-2,-1.16013205E-2,1.2E1,6.439172E-2,6.741899E-2,1E0,6.827922E-2,-5.739968E-2,6.8270445E-2,-7.8199685E-2,1.22666664E2,7.5982E4,6.659572E-2,-8.185508E-2,6.806921E-2,2.1930417E-2,5.3737253E-2,-5.319317E-2,-9.42323E-3,6.2072277E-2,-8.29583E-2,-3.7673965E-2,-7.637385E-2,-3.0307088E-3,-7.896692E-2,6.356284E-2,-7.629993E-2,-8.287331E-2],"split_indices":[25,14,26,15,23,22,29,28,3,20,7,0,13,28,13,9,13,10,26,14,0,0,0,4,0,0,2,0,11,2,7,22,0,0,0,0,26,0,25,13,2,0,0,6,0,0,0,1,0,0,24,0,0,0,0,9,0,0,0,0,0,0,0,0,0,0,0,0,0,0,0,0,0],"split_type":[0,0,0,0,0,0,0,0,0,0,0,0,0,0,0,0,0,0,0,0,0,0,0,0,0,0,0,0,0,0,0,0,0,0,0,0,0,0,0,0,0,0,0,0,0,0,0,0,0,0,0,0,0,0,0,0,0,0,0,0,0,0,0,0,0,0,0,0,0,0,0,0,0],"sum_hessian":[5.6031395E4,3.6177965E4,1.985343E4,1.5003969E4,2.1173996E4,1.923698E4,6.1644904E2,7.088193E3,7.9157754E3,1.9747629E4,1.4263682E3,3.748233E1,1.9199498E4,5.552699E2,6.1179184E1,4.783305E3,2.304888E3,1.9472362E2,7.721052E3,1.9576896E4,1.7073221E2,7.615636E1,1.3502118E3,1.9186055E4,1.3442469E1,5.294106E2,2.5859285E1,5.7415916E1,3.76327E0,4.701895E3,8.140996E1,2.2935781E3,1.1309863E1,1.9218593E2,2.5376928E0,3.976367E1,7.681288E3,1.9465959E4,1.10937775E2,1.918165E4,4.405084E0,1.1098859E0,1.2332582E1,1.0369272E1,1.5490012E1,2.5174198E0,1.2458503E0,4.6872764E3,1.4618636E1,6.937216E1,1.2037797E1,2.2914111E3,2.1669898E0,7.665699E3,1.5588841E1,7.220459E1,1.9393754E4,3.8848877E1,7.20889E1,1.9179451E4,2.1986814E0,3.1574528E0,1.2476312E0,1.2862445E0,9.083028E0,4.6832686E3,4.0079865E0,1.103674E1,1.0010564E0,5.69469E1,1.5257691E1,4.8402527E2,1.8909729E4],"tree_param":{"num_deleted":"0","num_feature":"32","num_nodes":"73","size_leaf_vector":"1"}},{"base_weights":[8.023306E-3,-6.6592234E-1,1.2472181E0,3.581876E-1,-1.385528E0,1.3290824E0,-1.2735877E0,-6.271752E-1,1.2483673E0,-1.5685391E0,1.1810331E0,-7.8765474E-2,1.3349218E0,-1.5540521E0,1.2862293E0,-1.5546236E0,1.3237693E0,-1.5365312E0,1.3198098E0,-1.5935692E0,6.668246E-2,-7.93272E-2,6.702294E-2,1.33686E0,-1.2877179E0,-8.018189E-2,-5.158501E-1,6.602185E-2,6.016283E-1,-1.5969764E0,9.0726024E-1,1.3385496E0,-7.46185E-2,-7.872236E-2,4.857869E-2,-7.844149E-2,1.3351902E0,-1.5992984E0,-5.783417E-1,1.3370653E0,3.7063476E-1,3.8105704E-2,-7.5820856E-2,1.0387642E0,-7.7357806E-2,4.8240963E-2,-1.1273806E-2,-1.6060692E0,6.3171305E-2,6.620637E-2,-1.3743728E0,6.7071214E-2,-5.589643E-2,6.7064025E-2,-7.577241E-2,-9.371395E-1,-1.6017138E0,6.5392725E-2,-7.927757E-2,6.685748E-2,2.1274148E-2,5.262056E-2,-5.1805615E-2,-9.155309E-3,6.0872216E-2,-8.0334105E-2,-3.6152985E-2,-7.402565E-2,-2.9542407E-3,-7.634387E-2,6.219116E-2,-7.358834E-2,-8.024869E-2],"categories":[],"categories_nodes":[],"categories_segments":[],"categories_sizes":[],"default_left":[0,0,0,0,0,0,0,0,0,0,0,0,0,0,0,0,0,0,0,0,0,0,0,0,0,0,0,0,0,0,0,0,0,0,0,0,0,0,0,0,0,0,0,0,0,0,0,0,0,0,0,0,0,0,0,0,0,0,0,0,0,0,0,0,0,0,0,0,0,0,0,0,0],"id":9,"left_children":[1,3,5,7,9,11,13,15,17,19,21,-1,23,25,27,29,31,33,35,37,-1,-1,-1,39,41,-1,43,-1,45,47,49,51,-1,-1,-1,-1,53,55,57,59,61,-1,-1,63,-1,-1,-1,65,-1,-1,67,-1,-1,-1,-1,69,71,-1,-1,-1,-1,-1,-1,-1,-1,-1,-1,-1,-1,-1,-1,-1,-1],"loss_changes":[4.5585246E4,2.6055652E4,3.9696953E3,1.2799577E4,9.755277E3,3.1795703E2,4.3657556E2,1.2534114E4,1.5273047E3,1.4101484E3,6.1219336E2,0E0,9.6203125E1,2.7280518E1,6.181717E-1,4.9097363E2,9.490918E1,1.9808258E1,3.3419824E2,1.10859375E2,0E0,0E0,0E0,3.1875E0,7.8291855E0,0E0,4.38741E1,0E0,1.6316695E0,1.2208203E2,7.794868E1,1.7183594E1,0E0,0E0,0E0,0E0,1.3113184E2,2.90625E1,2.0993243E2,8.59375E-1,6.202478E0,0E0,0E0,2.6489782E0,0E0,0E0,0E0,1.328125E0,0E0,0E0,1.7071915E0,0E0,0E0,0E0,0E0,9.432922E1,5.703125E0,0E0,0E0,0E0,0E0,0E0,0E0,0E0,0E0,0E0,0E0,0E0,0E0,0E0,0E0,0E0,0E0],"parents":[2147483647,0,0,1,1,2,2,3,3,4,4,5,5,6,6,7,7,8,8,9,9,10,10,12,12,13,13,14,14,15,15,16,16,17,17,18,18,19,19,23,23,24,24,26,26,28,28,29,29,30,30,31,31,36,36,37,37,38,38,39,39,40,40,43,43,47,47,50,50,55,55,56,56],"right_children":[2,4,6,8,10,12,14,16,18,20,22,-1,24,26,28,30,32,34,36,38,-1,-1,-1,40,42,-1,44,-1,46,48,50,52,-1,-1,-1,-1,54,56,58,60,62,-1,-1,64,-1,-1,-1,66,-1,-1,68,-1,-1,-1,-1,70,72,-1,-1,-1,-1,-1,-1,-1,-1,-1,-1,-1,-1,-1,-1,-1,-1],"split_conditions":[2.6883E4,5.6476616E3,2.41E2,2.1244167E3,1E0,1E0,3.7655055E6,2.8E1,1.6E1,1E0,4.2E2,-7.8765474E-2,4.4E1,2.4E1,3.1E1,1.2690476E2,3.2E1,2.5464272E3,1.76E2,3.4559456E7,6.668246E-2,-7.93272E-2,6.702294E-2,7.41E2,5.3E1,-8.018189E-2,2E0,6.602185E-2,4.1048917E-1,6E0,3.68E2,1E0,-7.46185E-2,-7.872236E-2,4.857869E-2,-7.844149E-2,2.2E2,2.2075E4,2.26E2,4E1,6E0,3.8105704E-2,-7.5820856E-2,5.0153847E1,-7.7357806E-2,4.8240963E-2,-1.1273806E-2,1.2E1,6.3171305E-2,6.620637E-2,1E0,6.7071214E-2,-5.589643E-2,6.7064025E-2,-7.577241E-2,1.22666664E2,7.5982E4,6.5392725E-2,-7.927757E-2,6.685748E-2,2.1274148E-2,5.262056E-2,-5.1805615E-2,-9.155309E-3,6.0872216E-2,-8.0334105E-2,-3.6152985E-2,-7.402565E-2,-2.9542407E-3,-7.634387E-2,6.219116E-2,-7.358834E-2,-8.024869E-2],"split_indices":[25,14,26,15,23,22,29,28,3,20,7,0,13,28,13,9,13,10,26,14,0,0,0,4,0,0,2,0,11,2,7,22,0,0,0,0,26,0,25,13,2,0,0,6,0,0,0,1,0,0,24,0,0,0,0,9,0,0,0,0,0,0,0,0,0,0,0,0,0,0,0,0,0],"split_type":[0,0,0,0,0,0,0,0,0,0,0,0,0,0,0,0,0,0,0,0,0,0,0,0,0,0,0,0,0,0,0,0,0,0,0,0,0,0,0,0,0,0,0,0,0,0,0,0,0,0,0,0,0,0,0,0,0,0,0,0,0,0,0,0,0,0,0,0,0,0,0,0,0],"sum_hessian":[5.458131E4,3.5354145E4,1.9227164E4,1.4590339E4,2.0763807E4,1.862285E4,6.043129E2,6.9250825E3,7.6652563E3,1.9382133E4,1.3816735E3,3.682732E1,1.8586023E4,5.44994E2,5.9318943E1,4.693886E3,2.2311965E3,1.9120949E2,7.474047E3,1.9216848E4,1.6528531E2,7.476828E1,1.3069053E3,1.8572787E4,1.3235452E1,5.196312E2,2.5362762E1,5.561142E1,3.7075257E0,4.614846E3,7.9039734E1,2.2200693E3,1.1127157E1,1.8872865E2,2.4808223E0,3.9049385E1,7.4349976E3,1.9108438E4,1.0841115E2,1.8568457E4,4.3301334E0,1.0943545E0,1.2141097E1,1.0112186E1,1.5250575E1,2.4605625E0,1.2469634E0,4.60066E3,1.4186292E1,6.718442E1,1.1855314E1,2.217928E3,2.1415374E0,7.419675E3,1.532253E1,7.0863106E1,1.9037574E4,3.763458E1,7.0776566E1,1.8566273E4,2.1843967E0,3.0862656E0,1.243868E0,1.2869369E0,8.82525E0,4.5966504E3,4.00979E0,1.085382E1,1.0014943E0,5.601611E1,1.4846994E1,4.7698193E2,1.8560592E4],"tree_param":{"num_deleted":"0","num_feature":"32","num_nodes":"73","size_leaf_vector":"1"}},{"base_weights":[8.072497E-3,-6.488905E-1,1.2259562E0,3.5092968E-1,-1.3461206E0,1.3068806E0,-1.237622E0,-6.112747E-1,1.2272174E0,-1.5227568E0,1.1606723E0,-7.644565E-2,1.312661E0,-1.5088103E0,1.2636564E0,-1.5095506E0,1.3016971E0,-1.4908204E0,1.2978665E0,-1.5468992E0,6.557346E-2,-7.7018924E-2,6.591519E-2,1.3145838E0,-1.2467945E0,-7.7845745E-2,-5.011786E-1,6.490329E-2,5.866277E-1,-1.5504304E0,8.89156E-1,1.3163632E0,-7.2441384E-2,-7.639063E-2,4.7644388E-2,-7.616218E-2,1.3130904E0,-1.5524263E0,-5.6346714E-1,1.3147905E0,3.577449E-1,3.7397757E-2,-7.355638E-2,1.0157171E0,-7.5012915E-2,4.7320854E-2,-1.0955858E-2,-1.5592259E0,6.2034797E-2,6.5088995E-2,-1.3331615E0,6.596209E-2,-5.4483514E-2,6.595642E-2,-7.357969E-2,-9.0918475E-1,-1.5547725E0,6.428092E-2,-7.697051E-2,6.5746576E-2,3.190006E-2,5.155945E-2,-5.0492603E-2,-8.895195E-3,5.9747595E-2,-7.799211E-2,-3.4709565E-2,-7.1895294E-2,-2.8797048E-3,-7.397263E-2,6.090648E-2,-7.111745E-2,-7.7905625E-2],"categories":[],"categories_nodes":[],"categories_segments":[],"categories_sizes":[],"default_left":[0,0,0,0,0,0,0,0,0,0,0,0,0,0,0,0,0,0,0,0,0,0,0,0,0,0,0,0,0,0,0,0,0,0,0,0,0,0,0,0,0,0,0,0,0,0,0,0,0,0,0,0,0,0,0,0,0,0,0,0,0,0,0,0,0,0,0,0,0,0,0,0,0],"id":10,"left_children":[1,3,5,7,9,11,13,15,17,19,21,-1,23,25,27,29,31,33,35,37,-1,-1,-1,39,41,-1,43,-1,45,47,49,51,-1,-1,-1,-1,53,55,57,59,61,-1,-1,63,-1,-1,-1,65,-1,-1,67,-1,-1,-1,-1,69,71,-1,-1,-1,-1,-1,-1,-1,-1,-1,-1,-1,-1,-1,-1,-1,-1],"loss_changes":[4.2470008E4,2.4037113E4,3.7097656E3,1.1946008E4,8.996852E3,2.972129E2,4.0351E2,1.1606498E4,1.4257988E3,1.300582E3,5.716135E2,0E0,9.008008E1,2.5132812E1,6.003189E-1,4.520381E2,8.897485E1,1.8479248E1,3.1241406E2,1.0141406E2,0E0,0E0,0E0,3.0839844E0,7.3669586E0,0E0,4.067492E1,0E0,1.5559427E0,1.1287793E2,7.293628E1,1.631128E1,0E0,0E0,0E0,0E0,1.22822266E2,2.6824219E1,1.9460083E2,8.75E-1,5.879573E0,0E0,0E0,2.534833E0,0E0,0E0,0E0,1.3193359E0,0E0,0E0,1.6077785E0,0E0,0E0,0E0,0E0,8.722309E1,6.0273438E0,0E0,0E0,0E0,0E0,0E0,0E0,0E0,0E0,0E0,0E0,0E0,0E0,0E0,0E0,0E0,0E0],"parents":[2147483647,0,0,1,1,2,2,3,3,4,4,5,5,6,6,7,7,8,8,9,9,10,10,12,12,13,13,14,14,15,15,16,16,17,17,18,18,19,19,23,23,24,24,26,26,28,28,29,29,30,30,31,31,36,36,37,37,38,38,39,39,40,40,43,43,47,47,50,50,55,55,56,56],"right_children":[2,4,6,8,10,12,14,16,18,20,22,-1,24,26,28,30,32,34,36,38,-1,-1,-1,40,42,-1,44,-1,46,48,50,52,-1,-1,-1,-1,54,56,58,60,62,-1,-1,64,-1,-1,-1,66,-1,-1,68,-1,-1,-1,-1,70,72,-1,-1,-1,-1,-1,-1,-1,-1,-1,-1,-1,-1,-1,-1,-1,-1],"split_conditions":[2.6883E4,5.6476616E3,2.41E2,2.1244167E3,1E0,1E0,3.7655055E6,2.8E1,1.6E1,1E0,4.2E2,-7.644565E-2,4.4E1,2.4E1,3.1E1,1.2690476E2,3.2E1,2.5464272E3,1.76E2,3.4559456E7,6.557346E-2,-7.7018924E-2,6.591519E-2,7.41E2,5.3E1,-7.7845745E-2,2E0,6.490329E-2,4.1048917E-1,6E0,3.68E2,1E0,-7.2441384E-2,-7.639063E-2,4.7644388E-2,-7.616218E-2,2.2E2,2.2075E4,2.26E2,3.7E1,6E0,3.7397757E-2,-7.355638E-2,5.0153847E1,-7.5012915E-2,4.7320854E-2,-1.0955858E-2,1.2E1,6.2034797E-2,6.5088995E-2,1E0,6.596209E-2,-5.4483514E-2,6.595642E-2,-7.357969E-2,1.22666664E2,7.5982E4,6.428092E-2,-7.697051E-2,6.5746576E-2,3.190006E-2,5.155945E-2,-5.0492603E-2,-8.895195E-3,5.9747595E-2,-7.799211E-2,-3.4709565E-2,-7.1895294E-2,-2.8797048E-3,-7.397263E-2,6.090648E-2,-7.111745E-2,-7.7905625E-2],"split_indices":[25,14,26,15,23,22,29,28,3,20,7,0,13,28,13,9,13,10,26,14,0,0,0,4,0,0,2,0,11,2,7,22,0,0,0,0,26,0,25,13,2,0,0,6,0,0,0,1,0,0,24,0,0,0,0,9,0,0,0,0,0,0,0,0,0,0,0,0,0,0,0,0,0],"split_type":[0,0,0,0,0,0,0,0,0,0,0,0,0,0,0,0,0,0,0,0,0,0,0,0,0,0,0,0,0,0,0,0,0,0,0,0,0,0,0,0,0,0,0,0,0,0,0,0,0,0,0,0,0,0,0,0,0,0,0,0,0,0,0,0,0,0,0,0,0,0,0,0,0],"sum_hessian":[5.3078574E4,3.447967E4,1.8598902E4,1.4166116E4,2.0313557E4,1.8007844E4,5.910582E2,6.752196E3,7.4139204E3,1.8976787E4,1.3367689E3,3.6096428E1,1.7971748E4,5.336019E2,5.7456264E1,4.5948154E3,2.1573806E3,1.8731631E2,7.2266045E3,1.8816955E4,1.5983182E2,7.32275E1,1.2635414E3,1.7958744E4,1.3003991E1,5.0876816E2,2.4833778E1,5.3804405E1,3.651858E0,4.5181685E3,7.664692E1,2.146457E3,1.0923676E1,1.8489227E2,2.4240506E0,3.8257046E1,7.188347E3,1.8711217E4,1.05739174E2,1.795449E4,4.2532296E0,1.0786457E0,1.1925345E1,9.85474E0,1.4979037E1,2.4038708E0,1.2479873E0,4.504415E3,1.3753195E1,6.49936E1,1.165332E1,2.144343E3,2.1138513E0,7.17332E3,1.502744E1,6.9413155E1,1.8641803E4,3.641936E1,6.931982E1,1.7949807E4,4.6841235E0,3.0146928E0,1.2385367E0,1.2875661E0,8.567174E0,4.500406E3,4.0093007E0,1.0651402E1,1.0019181E0,5.497941E1,1.4433749E1,4.6911038E2,1.8172693E4],"tree_param":{"num_deleted":"0","num_feature":"32","num_nodes":"73","size_leaf_vector":"1"}},{"base_weights":[8.1071E-3,-6.334885E-1,1.2063794E0,3.442976E-1,-1.3106748E0,1.286425E0,-1.2052084E0,-5.969E-1,1.2077621E0,-1.4816365E0,1.1419493E0,-7.435513E-2,1.2921507E0,-1.4681677E0,1.2426839E0,-1.4690946E0,1.2813776E0,-1.4495746E0,1.2776742E0,-1.5049906E0,6.455116E-2,-7.494266E-2,6.489562E-2,1.2940593E0,-1.2093472E0,-7.574946E-2,-4.876513E-1,6.386905E-2,5.7221675E-1,-1.5086703E0,8.723636E-1,1.2959412E0,-7.045907E-2,-7.428906E-2,4.67488E-2,-7.410702E-2,1.2927535E0,-1.5103385E0,-5.4995084E-1,1.2942677E0,3.4553698E-1,3.6714222E-2,-7.149998E-2,9.938184E-1,-7.2890446E-2,4.643826E-2,-1.0647184E-2,-1.5172045E0,6.0973097E-2,6.405667E-2,-1.2953343E0,6.494136E-2,-5.3152014E-2,6.49372E-2,-7.1588986E-2,-8.8358724E-1,-1.5126256E0,6.325051E-2,-7.489505E-2,6.47206E-2,3.0939786E-2,5.054869E-2,-4.924797E-2,-8.642654E-3,5.869033E-2,-7.589139E-2,-3.33376E-2,-6.9953166E-2,-2.8070493E-3,-7.18165E-2,5.9698887E-2,-6.885165E-2,-7.580327E-2],"categories":[],"categories_nodes":[],"categories_segments":[],"categories_sizes":[],"default_left":[0,0,0,0,0,0,0,0,0,0,0,0,0,0,0,0,0,0,0,0,0,0,0,0,0,0,0,0,0,0,0,0,0,0,0,0,0,0,0,0,0,0,0,0,0,0,0,0,0,0,0,0,0,0,0,0,0,0,0,0,0,0,0,0,0,0,0,0,0,0,0,0,0],"id":11,"left_children":[1,3,5,7,9,11,13,15,17,19,21,-1,23,25,27,29,31,33,35,37,-1,-1,-1,39,41,-1,43,-1,45,47,49,51,-1,-1,-1,-1,53,55,57,59,61,-1,-1,63,-1,-1,-1,65,-1,-1,67,-1,-1,-1,-1,69,71,-1,-1,-1,-1,-1,-1,-1,-1,-1,-1,-1,-1,-1,-1,-1,-1],"loss_changes":[3.962424E4,2.2226643E4,3.4709863E3,1.116372E4,8.317426E3,2.781797E2,3.738222E2,1.0769547E4,1.3327959E3,1.2024805E3,5.344487E2,0E0,8.4447266E1,2.323999E1,5.8576965E-1,4.172871E2,8.3518555E1,1.7285187E1,2.9243457E2,9.3078125E1,0E0,0E0,0E0,2.9824219E0,6.9479923E0,0E0,3.7781555E1,0E0,1.4845388E0,1.04634766E2,6.833403E1,1.5501221E1,0E0,0E0,0E0,0E0,1.1518555E2,2.4871094E1,1.8074907E2,8.90625E-1,5.57736E0,0E0,0E0,2.428361E0,0E0,0E0,0E0,1.3212891E0,0E0,0E0,1.5199032E0,0E0,0E0,0E0,0E0,8.0810646E1,6.4023438E0,0E0,0E0,0E0,0E0,0E0,0E0,0E0,0E0,0E0,0E0,0E0,0E0,0E0,0E0,0E0,0E0],"parents":[2147483647,0,0,1,1,2,2,3,3,4,4,5,5,6,6,7,7,8,8,9,9,10,10,12,12,13,13,14,14,15,15,16,16,17,17,18,18,19,19,23,23,24,24,26,26,28,28,29,29,30,30,31,31,36,36,37,37,38,38,39,39,40,40,43,43,47,47,50,50,55,55,56,56],"right_children":[2,4,6,8,10,12,14,16,18,20,22,-1,24,26,28,30,32,34,36,38,-1,-1,-1,40,42,-1,44,-1,46,48,50,52,-1,-1,-1,-1,54,56,58,60,62,-1,-1,64,-1,-1,-1,66,-1,-1,68,-1,-1,-1,-1,70,72,-1,-1,-1,-1,-1,-1,-1,-1,-1,-1,-1,-1,-1,-1,-1,-1],"split_conditions":[2.6883E4,5.6476616E3,2.41E2,2.1244167E3,1E0,1E0,3.7655055E6,2.8E1,1.6E1,1E0,4.2E2,-7.435513E-2,4.4E1,2.4E1,3.1E1,1.2690476E2,3.2E1,2.5464272E3,1.76E2,3.4559456E7,6.455116E-2,-7.494266E-2,6.489562E-2,7.41E2,5.3E1,-7.574946E-2,2E0,6.386905E-2,4.1048917E-1,6E0,3.68E2,1E0,-7.045907E-2,-7.428906E-2,4.67488E-2,-7.410702E-2,2.2E2,2.2075E4,2.26E2,3.7E1,6E0,3.6714222E-2,-7.149998E-2,5.0153847E1,-7.2890446E-2,4.643826E-2,-1.0647184E-2,1.2E1,6.0973097E-2,6.405667E-2,1E0,6.494136E-2,-5.3152014E-2,6.49372E-2,-7.1588986E-2,1.22666664E2,7.5982E4,6.325051E-2,-7.489505E-2,6.47206E-2,3.0939786E-2,5.054869E-2,-4.924797E-2,-8.642654E-3,5.869033E-2,-7.589139E-2,-3.33376E-2,-6.9953166E-2,-2.8070493E-3,-7.18165E-2,5.9698887E-2,-6.885165E-2,-7.580327E-2],"split_indices":[25,14,26,15,23,22,29,28,3,20,7,0,13,28,13,9,13,10,26,14,0,0,0,4,0,0,2,0,11,2,7,22,0,0,0,0,26,0,25,13,2,0,0,6,0,0,0,1,0,0,24,0,0,0,0,9,0,0,0,0,0,0,0,0,0,0,0,0,0,0,0,0,0],"split_type":[0,0,0,0,0,0,0,0,0,0,0,0,0,0,0,0,0,0,0,0,0,0,0,0,0,0,0,0,0,0,0,0,0,0,0,0,0,0,0,0,0,0,0,0,0,0,0,0,0,0,0,0,0,0,0,0,0,0,0,0,0,0,0,0,0,0,0,0,0,0,0,0,0],"sum_hessian":[5.153796E4,3.356604E4,1.7971922E4,1.3734851E4,1.983119E4,1.7395012E4,5.7690924E2,6.571769E3,7.163081E3,1.8539293E4,1.2918971E3,3.530387E1,1.7359709E4,5.213091E2,5.560019E1,4.4879624E3,2.0838066E3,1.8311725E2,6.979964E3,1.8384895E4,1.543985E2,7.1563225E1,1.2203339E3,1.7346957E4,1.27524395E1,4.9702985E2,2.4279203E1,5.2003742E1,3.5964448E0,4.4137163E3,7.4245834E1,2.0731035E3,1.0703164E1,1.807497E2,2.3675587E0,3.740147E1,6.9425625E3,1.828194E4,1.0295526E2,1.7342781E4,4.174828E0,1.0628102E0,1.1689629E1,9.598111E0,1.4681091E1,2.3475175E0,1.2489275E0,4.400395E3,1.3321412E1,6.2810455E1,1.143538E1,2.0710193E3,2.0842633E0,6.9278535E3,1.4708913E1,6.787717E1,1.8214062E4,3.5209015E1,6.774625E1,1.733816E4,4.620697E0,2.9430425E0,1.2317855E0,1.2881362E0,8.309976E0,4.396388E3,4.006794E0,1.0433051E1,1.0023284E0,5.3856995E1,1.4020173E1,4.605703E2,1.7753492E4],"tree_param":{"num_deleted":"0","num_feature":"32","num_nodes":"73","size_leaf_vector":"1"}},{"base_weights":[8.129794E-3,-6.1950654E-1,1.1883118E0,3.3821967E-1,-1.27865E0,1.2675347E0,-1.1758661E0,-5.838556E-1,1.1898249E0,-1.4445332E0,1.1246926E0,-7.246245E-2,1.2732097E0,-1.4314897E0,1.2231416E0,-1.4326192E0,1.2626297E0,-1.412175E0,1.2590523E0,-1.4671831E0,6.360662E-2,-7.306655E-2,6.395519E-2,1.2751056E0,-1.1749126E0,-7.385988E-2,-4.7512078E-1,6.291034E-2,5.583569E-1,-1.4710346E0,8.567374E-1,1.2771024E0,-6.8645835E-2,-7.238573E-2,4.5888714E-2,-7.224541E-2,1.2739974E0,-1.4723716E0,-5.376188E-1,1.2753159E0,3.3395204E-1,3.6053665E-2,-6.962368E-2,9.7294754E-1,-7.096E-2,4.559013E-2,-1.034747E-2,-1.4793378E0,5.9978247E-2,6.310054E-2,-1.2604488E0,6.399994E-2,-5.18941E-2,6.399724E-2,-6.977337E-2,-8.600275E-1,-1.4746081E0,6.2293E-2,-7.301938E-2,6.37732E-2,3.000992E-2,4.9583655E-2,-4.8066165E-2,-8.397441E-3,5.7693362E-2,-7.399857E-2,-3.2031666E-2,-6.817462E-2,-2.736236E-3,-6.984535E-2,5.8559775E-2,-6.6761695E-2,-7.390831E-2],"categories":[],"categories_nodes":[],"categories_segments":[],"categories_sizes":[],"default_left":[0,0,0,0,0,0,0,0,0,0,0,0,0,0,0,0,0,0,0,0,0,0,0,0,0,0,0,0,0,0,0,0,0,0,0,0,0,0,0,0,0,0,0,0,0,0,0,0,0,0,0,0,0,0,0,0,0,0,0,0,0,0,0,0,0,0,0,0,0,0,0,0,0],"id":12,"left_children":[1,3,5,7,9,11,13,15,17,19,21,-1,23,25,27,29,31,33,35,37,-1,-1,-1,39,41,-1,43,-1,45,47,49,51,-1,-1,-1,-1,53,55,57,59,61,-1,-1,63,-1,-1,-1,65,-1,-1,67,-1,-1,-1,-1,69,71,-1,-1,-1,-1,-1,-1,-1,-1,-1,-1,-1,-1,-1,-1,-1,-1],"loss_changes":[3.7017184E4,2.0595443E4,3.2510996E3,1.0444918E4,7.7058633E3,2.6067383E2,3.4704486E2,1.00113125E4,1.2473486E3,1.1142148E3,5.0031592E2,0E0,7.925586E1,2.1561646E1,5.739441E-1,3.8611035E2,7.84895E1,1.6206848E1,2.7405762E2,8.567969E1,0E0,0E0,0E0,2.8867188E0,6.566393E0,0E0,3.515488E1,0E0,1.4171312E0,9.72168E1,6.409785E1,1.4748047E1,0E0,0E0,0E0,0E0,1.0815234E2,2.3144531E1,1.6818472E2,9.0625E-1,5.2941895E0,0E0,0E0,2.3287592E0,0E0,0E0,0E0,1.3320312E0,0E0,0E0,1.4417171E0,0E0,0E0,0E0,0E0,7.500058E1,6.8359375E0,0E0,0E0,0E0,0E0,0E0,0E0,0E0,0E0,0E0,0E0,0E0,0E0,0E0,0E0,0E0,0E0],"parents":[2147483647,0,0,1,1,2,2,3,3,4,4,5,5,6,6,7,7,8,8,9,9,10,10,12,12,13,13,14,14,15,15,16,16,17,17,18,18,19,19,23,23,24,24,26,26,28,28,29,29,30,30,31,31,36,36,37,37,38,38,39,39,40,40,43,43,47,47,50,50,55,55,56,56],"right_children":[2,4,6,8,10,12,14,16,18,20,22,-1,24,26,28,30,32,34,36,38,-1,-1,-1,40,42,-1,44,-1,46,48,50,52,-1,-1,-1,-1,54,56,58,60,62,-1,-1,64,-1,-1,-1,66,-1,-1,68,-1,-1,-1,-1,70,72,-1,-1,-1,-1,-1,-1,-1,-1,-1,-1,-1,-1,-1,-1,-1,-1],"split_conditions":[2.6883E4,5.6476616E3,2.41E2,2.1244167E3,1E0,1E0,3.7655055E6,2.8E1,1.6E1,1E0,4.2E2,-7.246245E-2,4.4E1,2.4E1,3.1E1,1.2690476E2,3.2E1,2.5464272E3,1.76E2,3.4559456E7,6.360662E-2,-7.306655E-2,6.395519E-2,7.41E2,5.3E1,-7.385988E-2,2E0,6.291034E-2,4.1048917E-1,6E0,3.68E2,1E0,-6.8645835E-2,-7.238573E-2,4.5888714E-2,-7.224541E-2,2.2E2,2.2075E4,2.26E2,3.7E1,6E0,3.6053665E-2,-6.962368E-2,5.0153847E1,-7.096E-2,4.559013E-2,-1.034747E-2,1.2E1,5.9978247E-2,6.310054E-2,1E0,6.399994E-2,-5.18941E-2,6.399724E-2,-6.977337E-2,1.22666664E2,7.5982E4,6.2293E-2,-7.301938E-2,6.37732E-2,3.000992E-2,4.9583655E-2,-4.8066165E-2,-8.397441E-3,5.7693362E-2,-7.399857E-2,-3.2031666E-2,-6.817462E-2,-2.736236E-3,-6.984535E-2,5.8559775E-2,-6.6761695E-2,-7.390831E-2],"split_indices":[25,14,26,15,23,22,29,28,3,20,7,0,13,28,13,9,13,10,26,14,0,0,0,4,0,0,2,0,11,2,7,22,0,0,0,0,26,0,25,13,2,0,0,6,0,0,0,1,0,0,24,0,0,0,0,9,0,0,0,0,0,0,0,0,0,0,0,0,0,0,0,0,0],"split_type":[0,0,0,0,0,0,0,0,0,0,0,0,0,0,0,0,0,0,0,0,0,0,0,0,0,0,0,0,0,0,0,0,0,0,0,0,0,0,0,0,0,0,0,0,0,0,0,0,0,0,0,0,0,0,0,0,0,0,0,0,0,0,0,0,0,0,0,0,0,0,0,0,0],"sum_hessian":[4.997226E4,3.2623258E4,1.7349004E4,1.3299605E4,1.9323652E4,1.6786941E4,5.620621E2,6.3857505E3,6.9138545E3,1.8076387E4,1.2472667E3,3.4462124E1,1.675248E4,5.0830365E2,5.3758427E1,4.374961E3,2.0107898E3,1.7867615E2,6.735178E3,1.7927379E4,1.4900818E2,6.9801E1,1.1774657E3,1.6739996E4,1.248464E1,4.8459857E2,2.3705063E1,5.0216984E1,3.541444E0,4.3031123E3,7.18488E1,2.0003208E3,1.0468932E1,1.7636464E2,2.3115048E0,3.649567E1,6.6986826E3,1.782729E4,1.0008854E2,1.67359E4,4.095339E0,1.0468938E0,1.1437746E1,9.343315E0,1.4361749E1,2.2916546E0,1.2497894E0,4.290219E3,1.2892718E1,6.064417E1,1.1204635E1,1.9982677E3,2.0530758E0,6.684311E3,1.4371645E1,6.627467E1,1.7761016E4,3.4008522E1,6.608002E1,1.6731342E4,4.5582676E0,2.871584E0,1.2237546E0,1.2886513E0,8.054664E0,4.286217E3,4.0025167E0,1.0201909E1,1.0027257E0,5.2666496E1,1.3608179E1,4.5150082E2,1.7309514E4],"tree_param":{"num_deleted":"0","num_feature":"32","num_nodes":"73","size_leaf_vector":"1"}},{"base_weights":[8.143496E-3,-6.067689E-1,1.1716003E0,3.3263576E-1,-1.2495995E0,1.2500529E0,-1.1491967E0,-5.719778E-1,1.1732534E0,-1.410915E0,1.1087531E0,-7.0741504E-2,1.2556808E0,-1.3982534E0,1.2048812E0,-1.3995997E0,1.245297E0,-1.3781102E0,1.2418444E0,-1.4329331E0,6.273205E-2,-7.136424E-2,6.3085996E-2,1.2575653E0,-1.1431026E0,-7.214969E-2,-4.6346322E-1,6.201951E-2,5.450123E-1,-1.4369779E0,8.4215003E-1,1.2596889E0,-6.6980146E-2,-7.0654266E-2,4.5061275E-2,-7.0552036E-2,1.2566656E0,-1.4379787E0,-5.263251E-1,1.2577778E0,3.2293868E-1,3.5414744E-2,-6.7904174E-2,9.529981E-1,-6.919631E-2,4.4773687E-2,-1.0056446E-2,-1.4450763E0,5.9043307E-2,6.221288E-2,-1.2281322E0,6.312993E-2,-5.070289E-2,6.31287E-2,-6.8110324E-2,-3.5618716E-1,-1.4391593E0,6.140095E-2,-7.131722E-2,6.289365E-2,1.7880743E-2,4.8660286E-2,-4.6942208E-2,-8.15933E-3,5.6750454E-2,-7.228616E-2,-3.0786965E-2,-6.653901E-2,-2.6672091E-3,5.5589702E-2,-5.9543826E-2,-6.380447E-2,-7.219268E-2],"categories":[],"categories_nodes":[],"categories_segments":[],"categories_sizes":[],"default_left":[0,0,0,0,0,0,0,0,0,0,0,0,0,0,0,0,0,0,0,0,0,0,0,0,0,0,0,0,0,0,0,0,0,0,0,0,0,0,0,0,0,0,0,0,0,0,0,0,0,0,0,0,0,0,0,0,0,0,0,0,0,0,0,0,0,0,0,0,0,0,0,0,0],"id":13,"left_children":[1,3,5,7,9,11,13,15,17,19,21,-1,23,25,27,29,31,33,35,37,-1,-1,-1,39,41,-1,43,-1,45,47,49,51,-1,-1,-1,-1,53,55,57,59,61,-1,-1,63,-1,-1,-1,65,-1,-1,67,-1,-1,-1,-1,69,71,-1,-1,-1,-1,-1,-1,-1,-1,-1,-1,-1,-1,-1,-1,-1,-1],"loss_changes":[3.4622617E4,1.9119805E4,3.0481504E3,9.782915E3,7.1530527E3,2.4453906E2,3.227932E2,9.321878E3,1.1686484E3,1.0344492E3,4.6888953E2,0E0,7.4458984E1,2.006488E1,5.643692E-1,3.5801855E2,7.384375E1,1.5228424E1,2.571162E2,7.907031E1,0E0,0E0,0E0,2.8007812E0,6.217306E0,0E0,3.2762154E1,0E0,1.3534247E0,9.051074E1,6.018969E1,1.4045654E1,0E0,0E0,0E0,0E0,1.0165918E2,2.1648438E1,1.5674747E2,9.316406E-1,5.028581E0,0E0,0E0,2.2353249E0,0E0,0E0,0E0,1.3505859E0,0E0,0E0,1.371727E0,0E0,0E0,0E0,0E0,2.613094E1,1.14296875E1,0E0,0E0,0E0,0E0,0E0,0E0,0E0,0E0,0E0,0E0,0E0,0E0,0E0,0E0,0E0,0E0],"parents":[2147483647,0,0,1,1,2,2,3,3,4,4,5,5,6,6,7,7,8,8,9,9,10,10,12,12,13,13,14,14,15,15,16,16,17,17,18,18,19,19,23,23,24,24,26,26,28,28,29,29,30,30,31,31,36,36,37,37,38,38,39,39,40,40,43,43,47,47,50,50,55,55,56,56],"right_children":[2,4,6,8,10,12,14,16,18,20,22,-1,24,26,28,30,32,34,36,38,-1,-1,-1,40,42,-1,44,-1,46,48,50,52,-1,-1,-1,-1,54,56,58,60,62,-1,-1,64,-1,-1,-1,66,-1,-1,68,-1,-1,-1,-1,70,72,-1,-1,-1,-1,-1,-1,-1,-1,-1,-1,-1,-1,-1,-1,-1,-1],"split_conditions":[2.6883E4,5.6476616E3,2.41E2,2.1244167E3,1E0,1E0,3.7655055E6,2.8E1,1.6E1,1E0,4.2E2,-7.0741504E-2,4.4E1,2.4E1,3.1E1,1.2690476E2,3.2E1,2.5464272E3,1.76E2,3.4559456E7,6.273205E-2,-7.136424E-2,6.3085996E-2,7.41E2,5.3E1,-7.214969E-2,2E0,6.201951E-2,4.1048917E-1,6E0,3.68E2,1E0,-6.6980146E-2,-7.0654266E-2,4.5061275E-2,-7.0552036E-2,2.2E2,2.6005E3,2.26E2,4E1,6E0,3.5414744E-2,-6.7904174E-2,5.0153847E1,-6.919631E-2,4.4773687E-2,-1.0056446E-2,1.2E1,5.9043307E-2,6.221288E-2,1E0,6.312993E-2,-5.070289E-2,6.31287E-2,-6.8110324E-2,1.48E2,7.5982E4,6.140095E-2,-7.131722E-2,6.289365E-2,1.7880743E-2,4.8660286E-2,-4.6942208E-2,-8.15933E-3,5.6750454E-2,-7.228616E-2,-3.0786965E-2,-6.653901E-2,-2.6672091E-3,5.5589702E-2,-5.9543826E-2,-6.380447E-2,-7.219268E-2],"split_indices":[25,14,26,15,23,22,29,28,3,20,7,0,13,28,13,9,13,10,26,14,0,0,0,4,0,0,2,0,11,2,7,22,0,0,0,0,26,12,25,13,2,0,0,6,0,0,0,1,0,0,24,0,0,0,0,3,0,0,0,0,0,0,0,0,0,0,0,0,0,0,0,0,0],"split_type":[0,0,0,0,0,0,0,0,0,0,0,0,0,0,0,0,0,0,0,0,0,0,0,0,0,0,0,0,0,0,0,0,0,0,0,0,0,0,0,0,0,0,0,0,0,0,0,0,0,0,0,0,0,0,0,0,0,0,0,0,0,0,0,0,0,0,0,0,0,0,0,0,0],"sum_hessian":[4.8392543E4,3.1660014E4,1.6732531E4,1.2863026E4,1.8796988E4,1.6185844E4,5.4668726E2,6.19583E3,6.6671963E3,1.7593932E4,1.2030552E3,3.3582092E1,1.6152262E4,4.9474976E2,5.1937515E1,4.2572334E3,1.9385963E3,1.7404877E2,6.4931475E3,1.7450252E4,1.4368025E2,6.796314E1,1.135092E3,1.6140058E4,1.2203979E1,4.7163315E2,2.311663E1,4.8450527E1,3.4869876E0,4.187767E3,6.946638E1,1.9283724E3,1.0223895E1,1.7179274E2,2.2560265E0,3.5550995E1,6.457596E3,1.7353088E4,9.716431E1,1.6136043E4,4.015129E0,1.0309381E0,1.117304E1,9.091209E0,1.402542E1,2.2364094E0,1.250578E0,4.175299E3,1.2468631E1,5.8502518E1,1.0963859E1,1.9263519E3,2.0205622E0,6.4435767E3,1.4019764E1,1.9245462E1,1.7333842E4,3.282209E1,6.434222E1,1.6133938E4,2.104182E0,2.8005536E0,1.2145756E0,1.2891152E0,7.802094E0,4.171302E3,3.9966936E0,9.960748E0,1.0031104E0,6.855899E0,1.2389564E1,4.9265103E2,1.6841191E4],"tree_param":{"num_deleted":"0","num_feature":"32","num_nodes":"73","size_leaf_vector":"1"}},{"base_weights":[8.149948E-3,-5.951143E-1,1.1561118E0,3.2749304E-1,-1.2231046E0,1.2338424E0,-1.1248671E0,-5.611283E-1,1.1579137E0,-1.3802845E0,1.0940012E0,-6.9170535E-2,1.2394264E0,-1.3680235E0,1.1877713E0,-1.3695991E0,1.229242E0,-1.346953E0,1.2259133E0,-1.4017316E0,6.192064E-2,-6.9813766E-2,6.228116E-2,1.2413007E0,-1.1135902E0,-7.059618E-2,-4.5257217E-1,6.118979E-2,5.3215176E-1,-1.4060464E0,8.284916E-1,1.243563E0,-6.54438E-2,-6.9072686E-2,4.426392E-2,-6.900566E-2,1.2406198E0,-1.4066485E0,-5.15946E-1,1.2415156E0,3.124503E-1,3.4796234E-2,-6.632184E-2,9.338772E-1,-6.7578256E-2,4.398649E-2,-9.773835E-3,-1.4139628E0,5.8162104E-2,6.1386943E-2,-1.1980685E0,6.232446E-2,-4.9572315E-2,6.232468E-2,-6.6580944E-2,-8.0344135E-1,-1.408877E0,6.0567807E-2,-6.976664E-2,6.208366E-2,5.582122E-1,4.7774922E-2,-4.5871593E-2,-7.928107E-3,5.585612E-2,-7.073129E-2,-2.9599208E-2,-4.2140917E-3,-6.5569624E-2,-6.6472255E-2,5.7689376E-2,-6.3044734E-2,-7.063544E-2,7.5497865E-3,3.095584E-2],"categories":[],"categories_nodes":[],"categories_segments":[],"categories_sizes":[],"default_left":[0,0,0,0,0,0,0,0,0,0,0,0,0,0,0,0,0,0,0,0,0,0,0,0,0,0,0,0,0,0,0,0,0,0,0,0,0,0,0,0,0,0,0,0,0,0,0,0,0,0,0,0,0,0,0,0,0,0,0,0,0,0,0,0,0,0,0,0,0,0,0,0,0,0,0],"id":14,"left_children":[1,3,5,7,9,11,13,15,17,19,21,-1,23,25,27,29,31,33,35,37,-1,-1,-1,39,41,-1,43,-1,45,47,49,51,-1,-1,-1,-1,53,55,57,59,61,-1,-1,63,-1,-1,-1,65,-1,-1,67,-1,-1,-1,-1,69,71,-1,-1,-1,73,-1,-1,-1,-1,-1,-1,-1,-1,-1,-1,-1,-1,-1,-1],"loss_changes":[3.2417744E4,1.7779219E4,2.860463E3,9.171918E3,6.651164E3,2.2962695E2,3.0074854E2,8.69293E3,1.0960059E3,9.620547E2,4.3988904E2,0E0,7.0015625E1,1.8723389E1,5.566635E-1,3.325996E2,6.954321E1,1.4337097E1,2.4146191E2,7.3140625E1,0E0,0E0,0E0,2.7167969E0,5.896702E0,0E0,3.0575869E1,0E0,1.2931552E0,8.442676E1,5.657667E1,1.3390137E1,0E0,0E0,0E0,0E0,9.565137E1,2.1542969E1,1.4630276E2,9.824219E-1,4.779189E0,0E0,0E0,2.1474533E0,0E0,0E0,0E0,1.3745117E0,0E0,0E0,1.368185E0,0E0,0E0,0E0,0E0,6.784299E1,7.7460938E0,0E0,0E0,0E0,4.046321E-2,0E0,0E0,0E0,0E0,0E0,0E0,0E0,0E0,0E0,0E0,0E0,0E0,0E0,0E0],"parents":[2147483647,0,0,1,1,2,2,3,3,4,4,5,5,6,6,7,7,8,8,9,9,10,10,12,12,13,13,14,14,15,15,16,16,17,17,18,18,19,19,23,23,24,24,26,26,28,28,29,29,30,30,31,31,36,36,37,37,38,38,39,39,40,40,43,43,47,47,50,50,55,55,56,56,60,60],"right_children":[2,4,6,8,10,12,14,16,18,20,22,-1,24,26,28,30,32,34,36,38,-1,-1,-1,40,42,-1,44,-1,46,48,50,52,-1,-1,-1,-1,54,56,58,60,62,-1,-1,64,-1,-1,-1,66,-1,-1,68,-1,-1,-1,-1,70,72,-1,-1,-1,74,-1,-1,-1,-1,-1,-1,-1,-1,-1,-1,-1,-1,-1,-1],"split_conditions":[2.6883E4,5.6476616E3,2.41E2,2.1244167E3,1E0,1E0,3.7655055E6,2.8E1,1.6E1,1E0,4.2E2,-6.9170535E-2,4.4E1,2.4E1,3.1E1,1.2690476E2,3.2E1,2.5464272E3,1.76E2,3.4559456E7,6.192064E-2,-6.9813766E-2,6.228116E-2,7.41E2,5.3E1,-7.059618E-2,2E0,6.118979E-2,4.1048917E-1,6E0,3.68E2,1E0,-6.54438E-2,-6.9072686E-2,4.426392E-2,-6.900566E-2,2.2E2,2.2075E4,2.26E2,3.7E1,6E0,3.4796234E-2,-6.632184E-2,5.0153847E1,-6.7578256E-2,4.398649E-2,-9.773835E-3,1.2E1,5.8162104E-2,6.1386943E-2,4.3982003E5,6.232446E-2,-4.9572315E-2,6.232468E-2,-6.6580944E-2,1.22666664E2,7.5982E4,6.0567807E-2,-6.976664E-2,6.208366E-2,3.8E1,4.7774922E-2,-4.5871593E-2,-7.928107E-3,5.585612E-2,-7.073129E-2,-2.9599208E-2,-4.2140917E-3,-6.5569624E-2,-6.6472255E-2,5.7689376E-2,-6.3044734E-2,-7.063544E-2,7.5497865E-3,3.095584E-2],"split_indices":[25,14,26,15,23,22,29,28,3,20,7,0,13,28,13,9,13,10,26,14,0,0,0,4,0,0,2,0,11,2,7,22,0,0,0,0,26,0,25,13,2,0,0,6,0,0,0,1,0,0,10,0,0,0,0,9,0,0,0,0,13,0,0,0,0,0,0,0,0,0,0,0,0,0,0],"split_type":[0,0,0,0,0,0,0,0,0,0,0,0,0,0,0,0,0,0,0,0,0,0,0,0,0,0,0,0,0,0,0,0,0,0,0,0,0,0,0,0,0,0,0,0,0,0,0,0,0,0,0,0,0,0,0,0,0,0,0,0,0,0,0,0,0,0,0,0,0,0,0,0,0,0,0],"sum_hessian":[4.680899E4,3.0684492E4,1.6124493E4,1.2427379E4,1.8257115E4,1.559356E4,5.309333E2,6.003472E3,6.4239062E3,1.7097703E4,1.1594121E3,3.267331E1,1.5560887E4,4.807903E2,5.0143E1,4.13602E3,1.8674521E3,1.6928366E2,6.2546226E3,1.6959271E4,1.3843102E2,6.6069115E1,1.0933429E3,1.5548974E4,1.1913432E1,4.582718E2,2.2518515E1,4.670981E1,3.4331925E0,4.0689126E3,6.710759E1,1.8574816E3,9.9706135E0,1.6708241E2,2.2012396E0,3.457738E1,6.2200454E3,1.6865066E4,9.420454E1,1.5545039E4,3.9345253E0,1.0149798E0,1.0898452E1,8.842534E0,1.367598E1,2.1818945E0,1.251298E0,4.056862E3,1.2050427E1,5.639211E1,1.0715484E1,1.8554946E3,1.9869702E0,6.206388E3,1.3656888E1,6.3408436E1,1.6801658E4,3.1653284E1,6.2551254E1,1.5540638E4,4.400804E0,2.730153E0,1.2043724E0,1.289531E0,7.553003E0,4.0528726E3,3.989527E0,1.1506102E0,9.564874E0,5.0229935E1,1.3178501E1,4.3240292E2,1.6369256E4,1.0252249E0,3.3755789E0],"tree_param":{"num_deleted":"0","num_feature":"32","num_nodes":"75","size_leaf_vector":"1"}},{"base_weights":[8.150556E-3,-5.8444357E-1,1.1417288E0,3.2274622E-1,-1.1989424E0,1.2187817E0,-1.102596E0,-5.5119026E-1,1.1436893E0,-1.3523793E0,1.0803232E0,-6.773121E-2,1.2243251E0,-1.3404337E0,1.1716974E0,-1.3422487E0,1.214344E0,-1.3183439E0,1.2111394E0,-1.3733107E0,6.1166395E-2,-6.8396665E-2,6.153466E-2,1.2261904E0,-1.0860974E0,-6.9180265E-2,-4.423566E-1,6.0415275E-2,5.197464E-1,-1.3778598E0,8.155335E-1,1.2286036E0,-6.402135E-2,-6.762245E-2,4.3494347E-2,-6.7588456E-2,1.22574E0,-1.3781118E0,-5.063759E-1,1.2264081E0,3.0244604E-1,-6.474859E-2,2.4278548E-2,9.155028E-1,-6.608796E-2,4.322632E-2,-9.499376E-3,-1.3856143E0,5.7329237E-2,6.061677E-2,-1.1693192E0,6.157744E-2,-4.8496984E-2,6.1579127E-2,-6.5169126E-2,-7.847407E-1,-1.3803089E0,5.978783E-2,-6.8349205E-2,6.132853E-2,5.426669E-1,4.6924323E-2,-4.4850253E-2,-7.7035553E-3,5.5005502E-2,-6.931479E-2,-2.8464569E-2,-4.101597E-3,-6.412948E-2,-6.49137E-2,5.6656867E-2,-6.1350048E-2,-6.921545E-2,7.3751803E-3,3.0088639E-2],"categories":[],"categories_nodes":[],"categories_segments":[],"categories_sizes":[],"default_left":[0,0,0,0,0,0,0,0,0,0,0,0,0,0,0,0,0,0,0,0,0,0,0,0,0,0,0,0,0,0,0,0,0,0,0,0,0,0,0,0,0,0,0,0,0,0,0,0,0,0,0,0,0,0,0,0,0,0,0,0,0,0,0,0,0,0,0,0,0,0,0,0,0,0,0],"id":15,"left_children":[1,3,5,7,9,11,13,15,17,19,21,-1,23,25,27,29,31,33,35,37,-1,-1,-1,39,41,-1,43,-1,45,47,49,51,-1,-1,-1,-1,53,55,57,59,61,-1,-1,63,-1,-1,-1,65,-1,-1,67,-1,-1,-1,-1,69,71,-1,-1,-1,73,-1,-1,-1,-1,-1,-1,-1,-1,-1,-1,-1,-1,-1,-1],"loss_changes":[3.0383648E4,1.6558762E4,2.6865625E3,8.606905E3,6.194463E3,2.1582031E2,2.806432E2,8.1174365E3,1.0288154E3,8.961914E2,4.1307153E2,0E0,6.589453E1,1.7515503E1,5.5052185E-1,3.095171E2,6.5555176E1,1.3522003E1,2.2696973E2,6.780859E1,0E0,0E0,0E0,2.640625E0,4.7702723E0,0E0,2.8572668E1,0E0,1.2360826E0,7.888623E1,5.3232014E1,1.2777344E1,0E0,0E0,0E0,0E0,9.008203E1,2.0253906E1,1.3673682E2,1E0,4.5448008E0,0E0,0E0,2.0646114E0,0E0,0E0,0E0,1.4018555E0,0E0,0E0,1.3073845E0,0E0,0E0,0E0,0E0,6.3221615E1,8.300781E0,0E0,0E0,0E0,3.6194444E-2,0E0,0E0,0E0,0E0,0E0,0E0,0E0,0E0,0E0,0E0,0E0,0E0,0E0,0E0],"parents":[2147483647,0,0,1,1,2,2,3,3,4,4,5,5,6,6,7,7,8,8,9,9,10,10,12,12,13,13,14,14,15,15,16,16,17,17,18,18,19,19,23,23,24,24,26,26,28,28,29,29,30,30,31,31,36,36,37,37,38,38,39,39,40,40,43,43,47,47,50,50,55,55,56,56,60,60],"right_children":[2,4,6,8,10,12,14,16,18,20,22,-1,24,26,28,30,32,34,36,38,-1,-1,-1,40,42,-1,44,-1,46,48,50,52,-1,-1,-1,-1,54,56,58,60,62,-1,-1,64,-1,-1,-1,66,-1,-1,68,-1,-1,-1,-1,70,72,-1,-1,-1,74,-1,-1,-1,-1,-1,-1,-1,-1,-1,-1,-1,-1,-1,-1],"split_conditions":[2.6883E4,5.6476616E3,2.41E2,2.1244167E3,1E0,1E0,3.7655055E6,2.8E1,1.6E1,1E0,4.2E2,-6.773121E-2,4.4E1,2.4E1,3.1E1,1.2690476E2,3.2E1,2.5464272E3,1.76E2,3.4559456E7,6.1166395E-2,-6.8396665E-2,6.153466E-2,7.41E2,3.6E1,-6.9180265E-2,2E0,6.0415275E-2,4.1048917E-1,6E0,3.68E2,1E0,-6.402135E-2,-6.762245E-2,4.3494347E-2,-6.7588456E-2,2.2E2,2.2075E4,2.26E2,3.7E1,6E0,-6.474859E-2,2.4278548E-2,5.0153847E1,-6.608796E-2,4.322632E-2,-9.499376E-3,1.2E1,5.7329237E-2,6.061677E-2,4.3982003E5,6.157744E-2,-4.8496984E-2,6.1579127E-2,-6.5169126E-2,1.22666664E2,7.5982E4,5.978783E-2,-6.8349205E-2,6.132853E-2,3.8E1,4.6924323E-2,-4.4850253E-2,-7.7035553E-3,5.5005502E-2,-6.931479E-2,-2.8464569E-2,-4.101597E-3,-6.412948E-2,-6.49137E-2,5.6656867E-2,-6.1350048E-2,-6.921545E-2,7.3751803E-3,3.0088639E-2],"split_indices":[25,14,26,15,23,22,29,28,3,20,7,0,13,28,13,9,13,10,26,14,0,0,0,4,28,0,2,0,11,2,7,22,0,0,0,0,26,0,25,13,2,0,0,6,0,0,0,1,0,0,10,0,0,0,0,9,0,0,0,0,13,0,0,0,0,0,0,0,0,0,0,0,0,0,0],"split_type":[0,0,0,0,0,0,0,0,0,0,0,0,0,0,0,0,0,0,0,0,0,0,0,0,0,0,0,0,0,0,0,0,0,0,0,0,0,0,0,0,0,0,0,0,0,0,0,0,0,0,0,0,0,0,0,0,0,0,0,0,0,0,0,0,0,0,0,0,0,0,0,0,0,0,0],"sum_hessian":[4.5228477E4,2.970188E4,1.5526597E4,1.199461E4,1.7707271E4,1.5011668E4,5.1492914E2,5.8099478E3,6.184662E3,1.6590807E4,1.1164634E3,3.1744072E1,1.4979924E4,4.6654962E2,4.837952E1,4.0124048E3,1.7975428E3,1.6442303E2,6.0202393E3,1.6457533E4,1.3327411E2,6.413583E1,1.0523275E3,1.4968309E4,1.1615614E1,4.4463492E2,2.1914724E1,4.4999363E1,3.3801568E0,3.9476167E3,6.478831E1,1.7878315E3,9.711335E0,1.622758E2,2.1472442E0,3.358346E1,5.986656E3,1.6366305E4,9.12282E1,1.4964454E4,3.853817E0,1.0408393E1,1.2072209E0,8.597905E0,1.3316819E1,2.1282027E0,1.251954E0,3.9359773E3,1.1639187E1,5.4318443E1,1.0469864E1,1.785879E3,1.9525234E0,5.9733696E3,1.32861805E1,6.1697598E1,1.6304607E4,3.050507E1,6.0723137E1,1.49601045E4,4.350046E0,2.6605568E0,1.1932601E0,1.2899024E0,7.3080025E0,3.931996E3,3.9811993E0,1.1504886E0,9.319375E0,4.8921413E1,1.2776185E1,4.2241223E2,1.5882195E4,1.0208107E0,3.3292353E0],"tree_param":{"num_deleted":"0","num_feature":"32","num_nodes":"75","size_leaf_vector":"1"}},{"base_weights":[8.146286E-3,-5.7463634E-1,1.1283464E0,3.1835583E-1,-1.1768019E0,1.2047632E0,-1.082145E0,-5.420632E-1,1.1304765E0,-1.326831E0,1.0676192E0,-6.640797E-2,1.2102689E0,-1.3151748E0,1.156557E0,-1.3172406E0,1.2004972E0,-1.2919775E0,1.1974161E0,-1.3472937E0,6.0464006E-2,-6.709727E-2,6.0841154E-2,1.2121282E0,-1.0600775E0,-6.788585E-2,-4.3273804E-1,5.9690733E-2,5.077708E-1,-1.3520966E0,8.0332386E-1,1.214704E0,-6.269957E-2,-6.628788E-2,4.275052E-2,-6.6285245E-2,1.2119188E0,-1.3519901E0,-4.975244E-1,1.2123487E0,2.928892E-1,-6.339504E-2,2.371589E-2,8.978021E-1,-6.4710245E-2,4.2491205E-2,-9.232812E-3,-1.3597063E0,5.6539852E-2,5.9897076E-2,-1.142365E0,6.0883548E-2,-4.747212E-2,6.0886692E-2,-6.3861184E-2,-1.1425028E0,-6.791721E-2,5.905589E-2,-6.7049265E-2,6.0625833E-2,5.2758807E-1,4.610561E-2,-4.3874517E-2,-7.4854787E-3,5.419425E-2,-6.8020456E-2,-2.7379612E-2,-3.9921203E-3,-6.279089E-2,-6.31009E-2,3.927433E-2,7.2046663E-3,2.9247615E-2],"categories":[],"categories_nodes":[],"categories_segments":[],"categories_sizes":[],"default_left":[0,0,0,0,0,0,0,0,0,0,0,0,0,0,0,0,0,0,0,0,0,0,0,0,0,0,0,0,0,0,0,0,0,0,0,0,0,0,0,0,0,0,0,0,0,0,0,0,0,0,0,0,0,0,0,0,0,0,0,0,0,0,0,0,0,0,0,0,0,0,0,0,0],"id":16,"left_children":[1,3,5,7,9,11,13,15,17,19,21,-1,23,25,27,29,31,33,35,37,-1,-1,-1,39,41,-1,43,-1,45,47,49,51,-1,-1,-1,-1,53,55,57,59,61,-1,-1,63,-1,-1,-1,65,-1,-1,67,-1,-1,-1,-1,69,-1,-1,-1,-1,71,-1,-1,-1,-1,-1,-1,-1,-1,-1,-1,-1,-1],"loss_changes":[2.8503123E4,1.5443644E4,2.5251543E3,8.083466E3,5.777342E3,2.0301367E2,2.622516E2,7.589446E3,9.665532E2,8.360488E2,3.8822595E2,0E0,6.2117188E1,1.6423523E1,5.4564285E-1,2.884878E2,6.185034E1,1.2774109E1,2.1353125E2,6.298633E1,0E0,0E0,0E0,2.5664062E0,4.5318108E0,0E0,2.6732573E1,0E0,1.1819903E0,7.382324E1,5.0128773E1,1.2203369E1,0E0,0E0,0E0,0E0,8.491211E1,1.95625E1,1.2795251E2,1.0136719E0,4.324315E0,0E0,0E0,1.9863348E0,0E0,0E0,0E0,1.4321289E0,0E0,0E0,1.2522812E0,0E0,0E0,0E0,0E0,1.1004193E2,0E0,0E0,0E0,0E0,3.2309532E-2,0E0,0E0,0E0,0E0,0E0,0E0,0E0,0E0,0E0,0E0,0E0,0E0],"parents":[2147483647,0,0,1,1,2,2,3,3,4,4,5,5,6,6,7,7,8,8,9,9,10,10,12,12,13,13,14,14,15,15,16,16,17,17,18,18,19,19,23,23,24,24,26,26,28,28,29,29,30,30,31,31,36,36,37,37,38,38,39,39,40,40,43,43,47,47,50,50,55,55,60,60],"right_children":[2,4,6,8,10,12,14,16,18,20,22,-1,24,26,28,30,32,34,36,38,-1,-1,-1,40,42,-1,44,-1,46,48,50,52,-1,-1,-1,-1,54,56,58,60,62,-1,-1,64,-1,-1,-1,66,-1,-1,68,-1,-1,-1,-1,70,-1,-1,-1,-1,72,-1,-1,-1,-1,-1,-1,-1,-1,-1,-1,-1,-1],"split_conditions":[2.6883E4,5.6476616E3,2.41E2,2.1244167E3,1E0,1E0,3.7655055E6,2.8E1,1.6E1,1E0,4.2E2,-6.640797E-2,4.4E1,2.4E1,3.1E1,1.2690476E2,3.2E1,2.5464272E3,1.76E2,3.4559456E7,6.0464006E-2,-6.709727E-2,6.0841154E-2,7.41E2,3.6E1,-6.788585E-2,2E0,5.9690733E-2,4.1048917E-1,6E0,3.68E2,1E0,-6.269957E-2,-6.628788E-2,4.275052E-2,-6.6285245E-2,2.2E2,7.5982E4,2.26E2,3.7E1,6E0,-6.339504E-2,2.371589E-2,5.0153847E1,-6.4710245E-2,4.2491205E-2,-9.232812E-3,1.2E1,5.6539852E-2,5.9897076E-2,4.3982003E5,6.0883548E-2,-4.747212E-2,6.0886692E-2,-6.3861184E-2,1.71053E4,-6.791721E-2,5.905589E-2,-6.7049265E-2,6.0625833E-2,3.8E1,4.610561E-2,-4.3874517E-2,-7.4854787E-3,5.419425E-2,-6.8020456E-2,-2.7379612E-2,-3.9921203E-3,-6.279089E-2,-6.31009E-2,3.927433E-2,7.2046663E-3,2.9247615E-2],"split_indices":[25,14,26,15,23,22,29,28,3,20,7,0,13,28,13,9,13,10,26,14,0,0,0,4,28,0,2,0,11,2,7,22,0,0,0,0,26,0,25,13,2,0,0,6,0,0,0,1,0,0,10,0,0,0,0,15,0,0,0,0,13,0,0,0,0,0,0,0,0,0,0,0,0],"split_type":[0,0,0,0,0,0,0,0,0,0,0,0,0,0,0,0,0,0,0,0,0,0,0,0,0,0,0,0,0,0,0,0,0,0,0,0,0,0,0,0,0,0,0,0,0,0,0,0,0,0,0,0,0,0,0,0,0,0,0,0,0,0,0,0,0,0,0,0,0,0,0,0,0],"sum_hessian":[4.3658656E4,2.8718424E4,1.4940233E4,1.1566357E4,1.7152066E4,1.4441447E4,4.9878616E2,5.616338E3,5.9500195E3,1.6077752E4,1.074314E3,3.0801609E1,1.4410646E4,4.5213525E2,4.665089E1,3.8873123E3,1.7290256E3,1.5950351E2,5.790516E3,1.5949531E4,1.2822081E2,6.2178E1,1.012136E3,1.439932E4,1.1325601E1,4.308265E2,2.1308737E1,4.3322926E1,3.3279648E0,3.824806E3,6.250622E1,1.7195776E3,9.448024E0,1.5740938E2,2.094126E0,3.2576744E1,5.7579395E3,1.5861279E4,8.825164E1,1.4395547E4,3.7732606E0,1.0127572E1,1.1980289E0,8.357836E0,1.2950901E1,2.075415E0,1.2525501E0,3.8135703E3,1.1235798E1,5.2286057E1,1.0220163E1,1.7176603E3,1.917422E0,5.7450293E3,1.2910399E1,4.7226105E2,1.5389019E4,2.9379904E1,5.887174E1,1.4391247E4,4.300144E0,2.5919137E0,1.1813468E0,1.2902321E0,7.0676036E0,3.8095984E3,3.9718752E0,1.1503655E0,9.0697975E0,4.450199E2,2.7241154E1,1.0164979E0,3.2836463E0],"tree_param":{"num_deleted":"0","num_feature":"32","num_nodes":"73","size_leaf_vector":"1"}},{"base_weights":[8.138952E-3,-5.655923E-1,1.115875E0,3.142879E-1,-1.1564317E0,1.1916938E0,-1.0633099E0,-5.336611E-1,1.1181847E0,-1.3033425E0,1.0558006E0,-6.518753E-2,1.1971645E0,-1.2919828E0,1.1422588E0,-1.294311E0,1.1876073E0,-1.2675936E0,1.1846502E0,-1.3233774E0,5.980881E-2,-6.590225E-2,6.019592E-2,1.1990187E0,-1.0356228E0,-6.6699214E-2,-4.236487E-1,5.9011478E-2,4.962011E-1,-1.328483E0,7.9178643E-1,1.2017698E0,-6.146706E-2,-6.505557E-2,4.203056E-2,-6.508306E-2,1.1990628E0,-1.3279785E0,-4.8931342E-1,1.1992425E0,2.8374743E-1,-6.2135197E-2,2.3167983E-2,8.807109E-1,-6.343211E-2,4.1779347E-2,-8.973903E-3,-1.3359636E0,5.5789668E-2,5.9223212E-2,-1.1170012E0,6.0238052E-2,-4.649346E-2,6.024268E-2,-6.26453E-2,-7.160288E-1,-1.3302957E0,5.836745E-2,-6.5853514E-2,1.1993535E0,1.468385E-2,4.5316197E-2,-4.2941056E-2,-7.27368E-3,5.34185E-2,-6.68345E-2,-2.6341248E-2,-3.885567E-3,-6.154239E-2,-6.2113095E-2,5.6770593E-2,-5.8499914E-2,-6.672697E-2,5.9977878E-2,4.117599E-2],"categories":[],"categories_nodes":[],"categories_segments":[],"categories_sizes":[],"default_left":[0,0,0,0,0,0,0,0,0,0,0,0,0,0,0,0,0,0,0,0,0,0,0,0,0,0,0,0,0,0,0,0,0,0,0,0,0,0,0,0,0,0,0,0,0,0,0,0,0,0,0,0,0,0,0,0,0,0,0,0,0,0,0,0,0,0,0,0,0,0,0,0,0,0,0],"id":17,"left_children":[1,3,5,7,9,11,13,15,17,19,21,-1,23,25,27,29,31,33,35,37,-1,-1,-1,39,41,-1,43,-1,45,47,49,51,-1,-1,-1,-1,53,55,57,59,61,-1,-1,63,-1,-1,-1,65,-1,-1,67,-1,-1,-1,-1,69,71,-1,-1,73,-1,-1,-1,-1,-1,-1,-1,-1,-1,-1,-1,-1,-1,-1,-1],"loss_changes":[2.67613E4,1.4421627E4,2.3751152E3,7.5977456E3,5.395172E3,1.9111914E2,2.4538153E2,7.103838E3,9.087612E2,7.8094727E2,3.6516785E2,0E0,5.8601562E1,1.5432678E1,5.41832E-1,2.6926807E2,5.840332E1,1.2085754E1,2.0104639E2,5.8601562E1,0E0,0E0,0E0,2.4921875E0,4.310894E0,0E0,2.5038431E1,0E0,1.1306815E0,6.9186035E1,4.724482E1,1.1665283E1,0E0,0E0,0E0,0E0,8.0103516E1,2.0822266E1,1.1986656E2,1.0371094E0,4.11673E0,0E0,0E0,1.9122143E0,0E0,0E0,0E0,1.465332E0,0E0,0E0,1.2020836E0,0E0,0E0,0E0,0E0,5.9953243E1,8.841797E0,0E0,0E0,7.421875E-2,0E0,0E0,0E0,0E0,0E0,0E0,0E0,0E0,0E0,0E0,0E0,0E0,0E0,0E0,0E0],"parents":[2147483647,0,0,1,1,2,2,3,3,4,4,5,5,6,6,7,7,8,8,9,9,10,10,12,12,13,13,14,14,15,15,16,16,17,17,18,18,19,19,23,23,24,24,26,26,28,28,29,29,30,30,31,31,36,36,37,37,38,38,39,39,40,40,43,43,47,47,50,50,55,55,56,56,59,59],"right_children":[2,4,6,8,10,12,14,16,18,20,22,-1,24,26,28,30,32,34,36,38,-1,-1,-1,40,42,-1,44,-1,46,48,50,52,-1,-1,-1,-1,54,56,58,60,62,-1,-1,64,-1,-1,-1,66,-1,-1,68,-1,-1,-1,-1,70,72,-1,-1,74,-1,-1,-1,-1,-1,-1,-1,-1,-1,-1,-1,-1,-1,-1,-1],"split_conditions":[2.6883E4,5.6476616E3,2.41E2,2.1244167E3,1E0,1E0,3.7655055E6,2.8E1,1.6E1,1E0,4.2E2,-6.518753E-2,4.4E1,2.4E1,3.1E1,1.2690476E2,3.2E1,2.5464272E3,1.76E2,3.4559456E7,5.980881E-2,-6.590225E-2,6.019592E-2,7.41E2,3.6E1,-6.6699214E-2,2E0,5.9011478E-2,4.1048917E-1,6E0,3.68E2,1E0,-6.146706E-2,-6.505557E-2,4.203056E-2,-6.508306E-2,2.2E2,2.2075E4,2.26E2,4E1,6E0,-6.2135197E-2,2.3167983E-2,5.0153847E1,-6.343211E-2,4.1779347E-2,-8.973903E-3,1.2E1,5.5789668E-2,5.9223212E-2,4.3982003E5,6.0238052E-2,-4.649346E-2,6.024268E-2,-6.26453E-2,1.22666664E2,7.5982E4,5.836745E-2,-6.5853514E-2,3.4E1,1.468385E-2,4.5316197E-2,-4.2941056E-2,-7.27368E-3,5.34185E-2,-6.68345E-2,-2.6341248E-2,-3.885567E-3,-6.154239E-2,-6.2113095E-2,5.6770593E-2,-5.8499914E-2,-6.672697E-2,5.9977878E-2,4.117599E-2],"split_indices":[25,14,26,15,23,22,29,28,3,20,7,0,13,28,13,9,13,10,26,14,0,0,0,4,28,0,2,0,11,2,7,22,0,0,0,0,26,0,25,13,2,0,0,6,0,0,0,1,0,0,10,0,0,0,0,9,0,0,0,13,0,0,0,0,0,0,0,0,0,0,0,0,0,0,0],"split_type":[0,0,0,0,0,0,0,0,0,0,0,0,0,0,0,0,0,0,0,0,0,0,0,0,0,0,0,0,0,0,0,0,0,0,0,0,0,0,0,0,0,0,0,0,0,0,0,0,0,0,0,0,0,0,0,0,0,0,0,0,0,0,0,0,0,0,0,0,0,0,0,0,0,0,0],"sum_hessian":[4.2105793E4,2.7739254E4,1.436654E4,1.1144014E4,1.659524E4,1.3883939E4,4.826005E2,5.423573E3,5.72044E3,1.5562189E4,1.0330498E3,2.985217E1,1.3854087E4,4.3764026E2,4.496023E1,3.7615469E3,1.6620265E3,1.5455667E2,5.5658833E3,1.543891E4,1.23280235E2,6.020831E1,9.728415E2,1.3843055E4,1.1032677E1,4.169367E2,2.0703556E1,4.1683548E1,3.2766845E0,3.7012803E3,6.0266716E1,1.6528441E3,9.182394E0,1.5251471E2,2.041954E0,3.1563734E1,5.5343193E3,1.5353621E4,8.5288864E1,1.3839361E4,3.693083E0,9.843752E0,1.1889246E0,8.122747E0,1.2580809E1,2.0235944E0,1.2530901E0,3.6904392E3,1.08410015E1,5.0298687E1,9.968031E0,1.6509623E3,1.8818462E0,5.5217876E3,1.2531944E1,5.9087654E1,1.5294533E4,2.8279787E1,5.700908E1,1.3837341E4,2.0202088E0,2.524351E0,1.1687323E0,1.2905232E0,6.832225E0,3.6864775E3,3.9617026E0,1.1502411E0,8.81779E0,4.6266426E1,1.2821229E1,4.0159103E2,1.4892942E4,1.3827643E4,9.698587E0],"tree_param":{"num_deleted":"0","num_feature":"32","num_nodes":"75","size_leaf_vector":"1"}},{"base_weights":[8.12874E-3,-5.5724645E-1,1.1042339E0,3.105118E-1,-1.1376854E0,1.1794902E0,-1.0459148E0,-5.259091E-1,1.1067328E0,-1.2817428E0,1.044789E0,-6.405847E-2,1.1849287E0,-1.2706316E0,1.1287217E0,-1.2732337E0,1.1755909E0,-1.2449676E0,1.1727582E0,-1.3013872E0,5.9196617E-2,-6.480011E-2,5.959476E-2,1.1867789E0,-1.0125588E0,-6.56086E-2,-4.1502842E-1,5.8373373E-2,4.8501614E-1,-1.3067847E0,7.8085303E-1,1.189717E0,-6.0313966E-2,-6.391399E-2,4.1332807E-2,-6.397074E-2,1.187088E0,-1.3059016E0,-4.8167467E-1,1.187006E0,2.7499104E-1,-6.0958635E-2,2.2634309E-2,8.6417264E-1,-6.2242348E-2,4.1089144E-2,-8.722418E-3,-1.31415E0,5.507484E-2,5.8590997E-2,-1.0930499E0,5.9636753E-2,-4.5557212E-2,5.964288E-2,-6.151129E-2,-1.0867062E0,-6.56329E-2,5.7718452E-2,-6.4750485E-2,5.935931E-2,2.481406E-2,4.455376E-2,-4.2046852E-2,-7.0679667E-3,5.267481E-2,-6.574512E-2,-2.534667E-2,-3.781868E-3,-6.037403E-2,-6.07329E-2,3.7220713E-2],"categories":[],"categories_nodes":[],"categories_segments":[],"categories_sizes":[],"default_left":[0,0,0,0,0,0,0,0,0,0,0,0,0,0,0,0,0,0,0,0,0,0,0,0,0,0,0,0,0,0,0,0,0,0,0,0,0,0,0,0,0,0,0,0,0,0,0,0,0,0,0,0,0,0,0,0,0,0,0,0,0,0,0,0,0,0,0,0,0,0,0],"id":18,"left_children":[1,3,5,7,9,11,13,15,17,19,21,-1,23,25,27,29,31,33,35,37,-1,-1,-1,39,41,-1,43,-1,45,47,49,51,-1,-1,-1,-1,53,55,57,59,61,-1,-1,63,-1,-1,-1,65,-1,-1,67,-1,-1,-1,-1,69,-1,-1,-1,-1,-1,-1,-1,-1,-1,-1,-1,-1,-1,-1,-1],"loss_changes":[2.5145498E4,1.3483266E4,2.2354473E3,7.14633E3,5.0443574E3,1.8004883E2,2.2986874E2,6.656209E3,8.550342E2,7.303789E2,3.4373438E2,0E0,5.5328125E1,1.45303955E1,5.3889084E-1,2.5165771E2,5.5191162E1,1.1450302E1,1.8943164E2,5.4615234E1,0E0,0E0,0E0,2.4277344E0,4.1056213E0,0E0,2.34754E1,0E0,1.0819757E0,6.492529E1,4.45606E1,1.1159912E1,0E0,0E0,0E0,0E0,7.5625E1,2.0558594E1,1.12407196E2,1.0664062E0,3.9211326E0,0E0,0E0,1.8418889E0,0E0,0E0,0E0,1.5014648E0,0E0,0E0,1.1561317E0,0E0,0E0,0E0,0E0,1.06278015E2,0E0,0E0,0E0,0E0,0E0,0E0,0E0,0E0,0E0,0E0,0E0,0E0,0E0,0E0,0E0],"parents":[2147483647,0,0,1,1,2,2,3,3,4,4,5,5,6,6,7,7,8,8,9,9,10,10,12,12,13,13,14,14,15,15,16,16,17,17,18,18,19,19,23,23,24,24,26,26,28,28,29,29,30,30,31,31,36,36,37,37,38,38,39,39,40,40,43,43,47,47,50,50,55,55],"right_children":[2,4,6,8,10,12,14,16,18,20,22,-1,24,26,28,30,32,34,36,38,-1,-1,-1,40,42,-1,44,-1,46,48,50,52,-1,-1,-1,-1,54,56,58,60,62,-1,-1,64,-1,-1,-1,66,-1,-1,68,-1,-1,-1,-1,70,-1,-1,-1,-1,-1,-1,-1,-1,-1,-1,-1,-1,-1,-1,-1],"split_conditions":[2.6883E4,5.6476616E3,2.41E2,2.1244167E3,1E0,1E0,3.7655055E6,2.8E1,1.6E1,1E0,4.2E2,-6.405847E-2,4.4E1,2.4E1,3.1E1,1.2690476E2,3.2E1,2.5464272E3,1.76E2,3.4559456E7,5.9196617E-2,-6.480011E-2,5.959476E-2,7.41E2,3.6E1,-6.56086E-2,2E0,5.8373373E-2,4.1048917E-1,6E0,3.68E2,1E0,-6.0313966E-2,-6.391399E-2,4.1332807E-2,-6.397074E-2,2.2E2,7.5982E4,2.26E2,3.7E1,6E0,-6.0958635E-2,2.2634309E-2,5.0153847E1,-6.2242348E-2,4.1089144E-2,-8.722418E-3,1.2E1,5.507484E-2,5.8590997E-2,4.3982003E5,5.9636753E-2,-4.5557212E-2,5.964288E-2,-6.151129E-2,1.5745143E4,-6.56329E-2,5.7718452E-2,-6.4750485E-2,5.935931E-2,2.481406E-2,4.455376E-2,-4.2046852E-2,-7.0679667E-3,5.267481E-2,-6.574512E-2,-2.534667E-2,-3.781868E-3,-6.037403E-2,-6.07329E-2,3.7220713E-2],"split_indices":[25,14,26,15,23,22,29,28,3,20,7,0,13,28,13,9,13,10,26,14,0,0,0,4,28,0,2,0,11,2,7,22,0,0,0,0,26,0,25,13,2,0,0,6,0,0,0,1,0,0,10,0,0,0,0,15,0,0,0,0,0,0,0,0,0,0,0,0,0,0,0],"split_type":[0,0,0,0,0,0,0,0,0,0,0,0,0,0,0,0,0,0,0,0,0,0,0,0,0,0,0,0,0,0,0,0,0,0,0,0,0,0,0,0,0,0,0,0,0,0,0,0,0,0,0,0,0,0,0,0,0,0,0,0,0,0,0,0,0,0,0,0,0,0,0],"sum_hessian":[4.0574203E4,2.6767775E4,1.3806428E4,1.0728738E4,1.6039036E4,1.3339973E4,4.664548E2,5.23245E3,5.496288E3,1.5046295E4,9.9274054E2,2.8901161E1,1.3311071E4,4.231447E2,4.3310085E1,3.6358025E3,1.596648E3,1.4960977E2,5.346678E3,1.4927836E4,1.18459785E2,5.8237698E1,9.3450287E2,1.3300333E4,1.0738518E1,4.0304294E2,2.0101774E1,4.0083714E1,3.2263744E0,3.5777283E3,5.8074177E1,1.5877319E3,8.915932E0,1.4761897E2,1.9907856E0,3.0550041E1,5.3161284E3,1.4845483E4,8.235185E1,1.329672E4,3.6134815E0,9.5586E0,1.1799171E0,7.8929906E0,1.2208784E1,1.9727962E0,1.2535782E0,3.567273E3,1.0455388E1,4.8359272E1,9.714905E0,1.585886E3,1.8459564E0,5.3039756E3,1.2152889E1,4.4874774E2,1.4396736E4,2.7206331E1,5.514552E1,1.3292534E4,4.1851172E0,2.4579725E0,1.1555092E0,1.2907784E0,6.602212E0,3.563322E3,3.950815E0,1.1501157E0,8.56479E0,4.1975357E2,2.8994162E1],"tree_param":{"num_deleted":"0","num_feature":"32","num_nodes":"71","size_leaf_vector":"1"}},{"base_weights":[8.115978E-3,-5.49515E-1,1.0933492E0,3.0700094E-1,-1.1203481E0,1.168076E0,-1.0298078E0,-5.1874274E-1,1.0960491E0,-1.2617784E0,1.0345148E0,-6.301092E-2,1.1734847E0,-1.2509259E0,1.1158727E0,-1.2538134E0,1.1643733E0,-1.2239056E0,1.161666E0,-1.281064E0,5.8623698E-2,-6.3780986E-2,5.9033956E-2,1.175332E0,-9.9073386E-1,-6.460388E-2,-4.0682566E-1,5.7772696E-2,4.741968E-1,-1.2867998E0,7.7046317E-1,1.1784708E0,-5.923171E-2,-6.285318E-2,4.0655777E-2,-6.293862E-2,1.1759198E0,-1.2854991E0,-4.7454888E-1,1.1755626E0,2.665939E-1,-5.9856277E-2,2.211437E-2,8.4813684E-1,-6.1131265E-2,4.0419158E-2,-8.478124E-3,-1.294062E0,5.4391917E-2,5.799669E-2,-1.0703565E0,5.9075918E-2,-4.465999E-2,5.9083562E-2,-6.0450293E-2,-6.5195805E-1,-1.287957E0,5.7105232E-2,-6.373029E-2,1.1759008E0,7.2227424E-1,4.381625E-2,-4.118915E-2,-6.868155E-3,5.196008E-2,-6.474215E-2,-2.4393355E-2,-3.6809396E-3,-5.9277143E-2,-6.408028E-2,4.533227E-2,-5.5960547E-2,-6.462486E-2,5.8802724E-2,3.6050793E-2,3.9215498E-2,1.3517834E-2],"categories":[],"categories_nodes":[],"categories_segments":[],"categories_sizes":[],"default_left":[0,0,0,0,0,0,0,0,0,0,0,0,0,0,0,0,0,0,0,0,0,0,0,0,0,0,0,0,0,0,0,0,0,0,0,0,0,0,0,0,0,0,0,0,0,0,0,0,0,0,0,0,0,0,0,0,0,0,0,0,0,0,0,0,0,0,0,0,0,0,0,0,0,0,0,0,0],"id":19,"left_children":[1,3,5,7,9,11,13,15,17,19,21,-1,23,25,27,29,31,33,35,37,-1,-1,-1,39,41,-1,43,-1,45,47,49,51,-1,-1,-1,-1,53,55,57,59,61,-1,-1,63,-1,-1,-1,65,-1,-1,67,-1,-1,-1,-1,69,71,-1,-1,73,75,-1,-1,-1,-1,-1,-1,-1,-1,-1,-1,-1,-1,-1,-1,-1,-1],"loss_changes":[2.3644018E4,1.2619129E4,2.105252E3,6.7262085E3,4.7213516E3,1.6973438E2,2.1557135E2,6.2427363E3,8.0501514E2,6.8382227E2,3.2378204E2,0E0,5.2271484E1,1.370636E1,5.3666306E-1,2.35479E2,5.219409E1,1.0862274E1,1.7860986E2,5.0972656E1,0E0,0E0,0E0,2.3632812E0,3.914362E0,0E0,2.2030542E1,0E0,1.0357101E0,6.1001953E1,4.2058804E1,1.0685059E1,0E0,0E0,0E0,0E0,7.144824E1,2.1490234E1,1.0551192E2,1.1074219E0,3.7366896E0,0E0,0E0,1.7750401E0,0E0,0E0,0E0,1.5380859E0,0E0,0E0,1.1138735E0,0E0,0E0,0E0,0E0,5.7538662E1,9.498047E0,0E0,0E0,4.4921875E-2,1.275034E-1,0E0,0E0,0E0,0E0,0E0,0E0,0E0,0E0,0E0,0E0,0E0,0E0,0E0,0E0,0E0,0E0],"parents":[2147483647,0,0,1,1,2,2,3,3,4,4,5,5,6,6,7,7,8,8,9,9,10,10,12,12,13,13,14,14,15,15,16,16,17,17,18,18,19,19,23,23,24,24,26,26,28,28,29,29,30,30,31,31,36,36,37,37,38,38,39,39,40,40,43,43,47,47,50,50,55,55,56,56,59,59,60,60],"right_children":[2,4,6,8,10,12,14,16,18,20,22,-1,24,26,28,30,32,34,36,38,-1,-1,-1,40,42,-1,44,-1,46,48,50,52,-1,-1,-1,-1,54,56,58,60,62,-1,-1,64,-1,-1,-1,66,-1,-1,68,-1,-1,-1,-1,70,72,-1,-1,74,76,-1,-1,-1,-1,-1,-1,-1,-1,-1,-1,-1,-1,-1,-1,-1,-1],"split_conditions":[2.6883E4,5.6476616E3,2.41E2,2.1244167E3,1E0,1E0,3.7655055E6,2.8E1,1.6E1,1E0,4.2E2,-6.301092E-2,4.4E1,2.4E1,3.1E1,1.2690476E2,3.2E1,2.5464272E3,1.76E2,3.4559456E7,5.8623698E-2,-6.3780986E-2,5.9033956E-2,7.41E2,3.6E1,-6.460388E-2,2E0,5.7772696E-2,4.1048917E-1,6E0,3.68E2,1E0,-5.923171E-2,-6.285318E-2,4.0655777E-2,-6.293862E-2,2.2E2,2.2075E4,2.26E2,3.4E1,6E0,-5.9856277E-2,2.211437E-2,5.0153847E1,-6.1131265E-2,4.0419158E-2,-8.478124E-3,1.2E1,5.4391917E-2,5.799669E-2,4.3982003E5,5.9075918E-2,-4.465999E-2,5.9083562E-2,-6.0450293E-2,1E0,7.5982E4,5.7105232E-2,-6.373029E-2,7.12E2,4E1,4.381625E-2,-4.118915E-2,-6.868155E-3,5.196008E-2,-6.474215E-2,-2.4393355E-2,-3.6809396E-3,-5.9277143E-2,-6.408028E-2,4.533227E-2,-5.5960547E-2,-6.462486E-2,5.8802724E-2,3.6050793E-2,3.9215498E-2,1.3517834E-2],"split_indices":[25,14,26,15,23,22,29,28,3,20,7,0,13,28,13,9,13,10,26,14,0,0,0,4,28,0,2,0,11,2,7,22,0,0,0,0,26,0,25,13,2,0,0,6,0,0,0,1,0,0,10,0,0,0,0,21,0,0,0,4,13,0,0,0,0,0,0,0,0,0,0,0,0,0,0,0,0],"split_type":[0,0,0,0,0,0,0,0,0,0,0,0,0,0,0,0,0,0,0,0,0,0,0,0,0,0,0,0,0,0,0,0,0,0,0,0,0,0,0,0,0,0,0,0,0,0,0,0,0,0,0,0,0,0,0,0,0,0,0,0,0,0,0,0,0,0,0,0,0,0,0,0,0,0,0,0,0],"sum_hessian":[3.906872E4,2.5808102E4,1.3260617E4,1.0321499E4,1.5486602E4,1.2810197E4,4.5041968E2,5.043641E3,5.2778584E3,1.453316E4,9.534414E2,2.7953226E1,1.2782244E4,4.087173E2,4.1702404E1,3.5106726E3,1.5329681E3,1.4468614E2,5.1331724E3,1.44193955E4,1.1376528E2,5.6275585E1,8.9716583E2,1.27718E4,1.0444576E1,3.8921167E2,1.9505598E1,3.8525322E1,3.17708E0,3.4547405E3,5.5932194E1,1.5243182E3,8.649924E0,1.4274547E2,1.9406686E0,2.9540478E1,5.103632E3,1.4339944E4,7.945073E1,1.2768265E4,3.534629E0,9.2735615E0,1.171015E0,7.66883E0,1.1836768E1,1.9230627E0,1.2540172E0,3.4446611E3,1.0079426E1,4.647017E1,9.462025E0,1.5225083E3,1.809896E0,5.091857E3,1.1775027E1,5.6446884E1,1.4283498E4,2.6160795E1,5.3289936E1,1.2757153E4,1.1111523E1,2.3928657E0,1.1417634E0,1.2910002E0,6.3778296E0,3.4407217E3,3.939331E0,1.1499895E0,8.312035E0,4.0331436E1,1.6115446E1,3.8072394E2,1.3902773E4,1.2751258E4,5.89526E0,9.123593E0,1.9879298E0],"tree_param":{"num_deleted":"0","num_feature":"32","num_nodes":"77","size_leaf_vector":"1"}},{"base_weights":[8.102099E-3,-5.423498E-1,1.0831583E0,3.0373123E-1,-1.1043129E0,1.1573862E0,-1.0148563E0,-5.121052E-1,1.0860685E0,-1.2433243E0,1.0249152E0,-6.2036302E-2,1.1627672E0,-1.2326964E0,1.1036459E0,-1.2358812E0,1.153888E0,-1.2042387E0,1.1513071E0,-1.2622805E0,5.808672E-2,-6.283623E-2,5.8510132E-2,1.1646125E0,-9.70016E-1,-6.367626E-2,-3.9899477E-1,5.7206094E-2,4.6372524E-1,-1.2683533E0,7.6056236E-1,1.1679642E0,-5.8212787E-2,-6.186446E-2,3.9998107E-2,-6.197831E-2,1.165491E0,-1.2666432E0,-4.6788403E-1,1.164847E0,2.5853232E-1,-5.8820195E-2,2.1607682E-2,8.3255875E-1,-6.009041E-2,3.9768092E-2,-8.240811E-3,-1.2755235E0,5.373776E-2,1.122915E0,-5.8684897E-2,5.8552176E-2,-4.3798752E-2,5.8561362E-2,-5.9454557E-2,-1.0360359E0,-6.369402E-2,5.6524534E-2,-6.278434E-2,1.1651969E0,7.0542E-1,4.3101784E-2,-4.036547E-2,-6.6740685E-3,5.1271524E-2,-6.381678E-2,-2.3478983E-2,5.163376E-4,5.743695E-2,-5.9370857E-2,2.7861891E-2,5.826776E-2,3.5276014E-2,3.837348E-2,1.3118687E-2],"categories":[],"categories_nodes":[],"categories_segments":[],"categories_sizes":[],"default_left":[0,0,0,0,0,0,0,0,0,0,0,0,0,0,0,0,0,0,0,0,0,0,0,0,0,0,0,0,0,0,0,0,0,0,0,0,0,0,0,0,0,0,0,0,0,0,0,0,0,0,0,0,0,0,0,0,0,0,0,0,0,0,0,0,0,0,0,0,0,0,0,0,0,0,0],"id":20,"left_children":[1,3,5,7,9,11,13,15,17,19,21,-1,23,25,27,29,31,33,35,37,-1,-1,-1,39,41,-1,43,-1,45,47,49,51,-1,-1,-1,-1,53,55,57,59,61,-1,-1,63,-1,-1,-1,65,-1,67,-1,-1,-1,-1,-1,69,-1,-1,-1,71,73,-1,-1,-1,-1,-1,-1,-1,-1,-1,-1,-1,-1,-1,-1],"loss_changes":[2.2247066E4,1.1822152E4,1.9837461E3,6.334691E3,4.4234824E3,1.6011328E2,2.0236688E2,5.860088E3,7.5838525E2,6.408906E2,3.0518335E2,0E0,4.941992E1,1.2951538E1,5.349922E-1,2.205835E2,4.939441E1,1.0316772E1,1.6851416E2,4.763867E1,0E0,0E0,0E0,2.3066406E0,3.7357054E0,0E0,2.0692577E1,0E0,9.9173415E-1,5.738086E1,3.975698E1,1.0237793E1,0E0,0E0,0E0,0E0,6.754834E1,2.1777344E1,9.912623E1,1.1484375E0,3.5626369E0,0E0,0E0,1.7113848E0,0E0,0E0,0E0,1.5761719E0,0E0,1.3299446E0,0E0,0E0,0E0,0E0,0E0,1.035235E2,0E0,0E0,0E0,6.8359375E-2,1.24741554E-1,0E0,0E0,0E0,0E0,0E0,0E0,0E0,0E0,0E0,0E0,0E0,0E0,0E0,0E0],"parents":[2147483647,0,0,1,1,2,2,3,3,4,4,5,5,6,6,7,7,8,8,9,9,10,10,12,12,13,13,14,14,15,15,16,16,17,17,18,18,19,19,23,23,24,24,26,26,28,28,29,29,30,30,31,31,36,36,37,37,38,38,39,39,40,40,43,43,47,47,49,49,55,55,59,59,60,60],"right_children":[2,4,6,8,10,12,14,16,18,20,22,-1,24,26,28,30,32,34,36,38,-1,-1,-1,40,42,-1,44,-1,46,48,50,52,-1,-1,-1,-1,54,56,58,60,62,-1,-1,64,-1,-1,-1,66,-1,68,-1,-1,-1,-1,-1,70,-1,-1,-1,72,74,-1,-1,-1,-1,-1,-1,-1,-1,-1,-1,-1,-1,-1,-1],"split_conditions":[2.6883E4,5.6476616E3,2.41E2,2.1244167E3,1E0,1E0,3.7655055E6,2.8E1,1.6E1,1E0,4.2E2,-6.2036302E-2,4.4E1,2.4E1,3.1E1,1.2690476E2,3.2E1,2.5464272E3,1.76E2,3.4559456E7,5.808672E-2,-6.283623E-2,5.8510132E-2,7.41E2,3.6E1,-6.367626E-2,2E0,5.7206094E-2,4.1048917E-1,6E0,1.48E2,1E0,-5.8212787E-2,-6.186446E-2,3.9998107E-2,-6.197831E-2,2.2E2,7.5982E4,2.26E2,3.4E1,6E0,-5.8820195E-2,2.1607682E-2,5.0153847E1,-6.009041E-2,3.9768092E-2,-8.240811E-3,1.2E1,5.373776E-2,5E0,-5.8684897E-2,5.8552176E-2,-4.3798752E-2,5.8561362E-2,-5.9454557E-2,1.32275E4,-6.369402E-2,5.6524534E-2,-6.278434E-2,7.12E2,4E1,4.3101784E-2,-4.036547E-2,-6.6740685E-3,5.1271524E-2,-6.381678E-2,-2.3478983E-2,5.163376E-4,5.743695E-2,-5.9370857E-2,2.7861891E-2,5.826776E-2,3.5276014E-2,3.837348E-2,1.3118687E-2],"split_indices":[25,14,26,15,23,22,29,28,3,20,7,0,13,28,13,9,13,10,26,14,0,0,0,4,28,0,2,0,11,2,3,22,0,0,0,0,26,0,25,13,2,0,0,6,0,0,0,1,0,1,0,0,0,0,0,15,0,0,0,4,13,0,0,0,0,0,0,0,0,0,0,0,0,0,0],"split_type":[0,0,0,0,0,0,0,0,0,0,0,0,0,0,0,0,0,0,0,0,0,0,0,0,0,0,0,0,0,0,0,0,0,0,0,0,0,0,0,0,0,0,0,0,0,0,0,0,0,0,0,0,0,0,0,0,0,0,0,0,0,0,0,0,0,0,0,0,0,0,0,0,0,0,0],"sum_hessian":[3.759233E4,2.4862623E4,1.2729704E4,9.92308E3,1.4939544E4,1.2295148E4,4.3455518E2,4.8577104E3,5.065369E3,1.4024349E4,9.1519525E2,2.7012344E1,1.2268137E4,3.944165E2,4.0138695E1,3.3866628E3,1.4710476E3,1.398057E2,4.9255635E3,1.3915148E4,1.09200905E2,5.4329975E1,8.608653E2,1.2257984E4,1.0152105E1,3.7549957E2,1.8916906E1,3.7009853E1,3.1288393E0,3.332819E3,5.3843597E1,1.4626621E3,8.38548E0,1.3791405E2,1.8916388E0,2.8539167E1,4.8970244E3,1.3838554E4,7.659403E1,1.2254527E4,3.4566746E0,8.989881E0,1.1622248E0,7.450476E0,1.1466431E1,1.874428E0,1.2544111E0,3.3231057E3,9.713469E0,4.5701595E1,8.142001E0,1.4608883E3,1.7737916E0,4.8856245E3,1.1399892E1,4.254731E2,1.3413081E4,2.5144104E1,5.1449932E1,1.2243665E4,1.0862342E1,2.3291013E0,1.1275731E0,1.2911911E0,6.1592846E0,3.3191782E3,3.9273589E0,1.0684586E0,4.4633137E1,3.8878802E2,3.6685074E1,1.2237916E4,5.7492013E0,8.885634E0,1.9767076E0],"tree_param":{"num_deleted":"0","num_feature":"32","num_nodes":"75","size_leaf_vector":"1"}},{"base_weights":[8.087097E-3,-5.3568554E-1,1.0736016E0,3.006829E-1,-1.0894166E0,1.1473591E0,-1.000945E0,-5.059453E-1,1.076734E0,-1.2261893E0,1.015935E0,-6.1127093E-2,1.1527146E0,-1.2157956E0,1.0919819E0,-1.2192887E0,1.1440753E0,-1.1858191E0,1.1416222E0,-1.2448412E0,5.7582665E-2,-6.195836E-2,5.802032E-2,1.154559E0,-9.502894E-1,-6.281813E-2,-3.914951E-1,5.6670554E-2,4.5358515E-1,-1.2512928E0,7.511714E-1,1.1581374E0,-5.7250608E-2,-6.0940266E-2,3.9358575E-2,-6.1082453E-2,1.1557424E0,-1.2491374E0,-4.6163413E-1,1.1547974E0,2.507851E-1,-5.7843443E-2,2.1113805E-2,8.1739897E-1,-5.91124E-2,3.9134756E-2,-8.01026E-3,-1.2583811E0,5.3109612E-2,1.1115638E0,-5.768579E-2,5.806255E-2,-4.2970773E-2,5.8073312E-2,-5.8517285E-2,-1.0120021E0,-6.283271E-2,5.597337E-2,-6.1905116E-2,1.1551601E0,6.888801E-1,4.2408716E-2,-3.957354E-2,-6.485545E-3,5.0606646E-2,-6.296132E-2,-2.2601461E-2,5.0299434E-4,5.6908753E-2,-5.7047497E-2,3.9771076E-2,5.776617E-2,3.4514178E-2,3.7545953E-2,1.2731232E-2],"categories":[],"categories_nodes":[],"categories_segments":[],"categories_sizes":[],"default_left":[0,0,0,0,0,0,0,0,0,0,0,0,0,0,0,0,0,0,0,0,0,0,0,0,0,0,0,0,0,0,0,0,0,0,0,0,0,0,0,0,0,0,0,0,0,0,0,0,0,0,0,0,0,0,0,0,0,0,0,0,0,0,0,0,0,0,0,0,0,0,0,0,0,0,0],"id":21,"left_children":[1,3,5,7,9,11,13,15,17,19,21,-1,23,25,27,29,31,33,35,37,-1,-1,-1,39,41,-1,43,-1,45,47,49,51,-1,-1,-1,-1,53,55,57,59,61,-1,-1,63,-1,-1,-1,65,-1,67,-1,-1,-1,-1,-1,69,-1,-1,-1,71,73,-1,-1,-1,-1,-1,-1,-1,-1,-1,-1,-1,-1,-1,-1],"loss_changes":[2.0945383E4,1.1085287E4,1.8702139E3,5.9693853E3,4.1481094E3,1.51125E2,1.9014801E2,5.505349E3,7.148638E2,6.012012E2,2.878252E2,0E0,4.6750977E1,1.225824E1,5.3377914E-1,2.0685254E2,4.677527E1,9.809525E0,1.5908447E2,4.457422E1,0E0,0E0,0E0,2.2451172E0,3.5684223E0,0E0,1.945159E1,0E0,9.4990927E-1,5.4032227E1,3.7537174E1,9.816406E0,0E0,0E0,0E0,0E0,6.3901855E1,2.2513672E1,9.320244E1,1.1894531E0,3.3982782E0,0E0,0E0,1.650671E0,0E0,0E0,0E0,1.6147461E0,0E0,1.3052025E0,0E0,0E0,0E0,0E0,0E0,9.766138E1,0E0,0E0,0E0,9.375E-2,1.2187815E-1,0E0,0E0,0E0,0E0,0E0,0E0,0E0,0E0,0E0,0E0,0E0,0E0,0E0,0E0],"parents":[2147483647,0,0,1,1,2,2,3,3,4,4,5,5,6,6,7,7,8,8,9,9,10,10,12,12,13,13,14,14,15,15,16,16,17,17,18,18,19,19,23,23,24,24,26,26,28,28,29,29,30,30,31,31,36,36,37,37,38,38,39,39,40,40,43,43,47,47,49,49,55,55,59,59,60,60],"right_children":[2,4,6,8,10,12,14,16,18,20,22,-1,24,26,28,30,32,34,36,38,-1,-1,-1,40,42,-1,44,-1,46,48,50,52,-1,-1,-1,-1,54,56,58,60,62,-1,-1,64,-1,-1,-1,66,-1,68,-1,-1,-1,-1,-1,70,-1,-1,-1,72,74,-1,-1,-1,-1,-1,-1,-1,-1,-1,-1,-1,-1,-1,-1],"split_conditions":[2.6883E4,5.6476616E3,2.41E2,2.1244167E3,1E0,1E0,3.7655055E6,2.8E1,1.6E1,1E0,4.2E2,-6.1127093E-2,4.4E1,2.4E1,3.1E1,1.2690476E2,3.2E1,2.5464272E3,1.76E2,3.4559456E7,5.7582665E-2,-6.195836E-2,5.802032E-2,7.41E2,3.6E1,-6.281813E-2,2E0,5.6670554E-2,4.1048917E-1,6E0,1.48E2,1E0,-5.7250608E-2,-6.0940266E-2,3.9358575E-2,-6.1082453E-2,2.2E2,7.5982E4,2.26E2,3.4E1,6E0,-5.7843443E-2,2.1113805E-2,